{"learner":{"attributes":{"best_iteration":"99","best_ntree_limit":"100","scikit_learn":"{\"use_label_encoder\": null, \"n_estimators\": 100, \"objective\": \"binary:logistic\", \"max_depth\": null, \"max_leaves\": null, \"max_bin\": null, \"grow_policy\": null, \"learning_rate\": 0.01, \"verbosity\": null, \"booster\": null, \"tree_method\": null, \"gamma\": null, \"min_child_weight\": null, \"max_delta_step\": null, \"subsample\": null, \"sampling_method\": null, \"colsample_bytree\": null, \"colsample_bylevel\": null, \"colsample_bynode\": null, \"reg_alpha\": null, \"reg_lambda\": null, \"scale_pos_weight\": 4.407166640241002, \"base_score\": null, \"missing\": NaN, \"num_parallel_tree\": null, \"random_state\": 1, \"n_jobs\": null, \"monotone_constraints\": null, \"interaction_constraints\": null, \"importance_type\": null, \"gpu_id\": null, \"validate_parameters\": null, \"predictor\": null, \"enable_categorical\": false, \"feature_types\": null, \"max_cat_to_onehot\": null, \"max_cat_threshold\": null, \"eval_metric\": null, \"early_stopping_rounds\": null, \"callbacks\": null, \"classes_\": [0, 1], \"n_classes_\": 2, \"_estimator_type\": \"classifier\"}"},"feature_names":["OPERA_Latin American Wings","MES_7","MES_10","OPERA_Grupo LATAM","MES_12","TIPOVUELO_I","MES_4","MES_11","OPERA_Sky Airline","OPERA_Copa Air"],"feature_types":["int","int","int","int","int","int","int","int","int","int"],"gradient_booster":{"model":{"gbtree_model_param":{"num_parallel_tree":"1","num_trees":"100","size_leaf_vector":"0"},"tree_info":[0,0,0,0,0,0,0,0,0,0,0,0,0,0,0,0,0,0,0,0,0,0,0,0,0,0,0,0,0,0,0,0,0,0,0,0,0,0,0,0,0,0,0,0,0,0,0,0,0,0,0,0,0,0,0,0,0,0,0,0,0,0,0,0,0,0,0,0,0,0,0,0,0,0,0,0,0,0,0,0,0,0,0,0,0,0,0,0,0,0,0,0,0,0,0,0,0,0,0,0],"trees":[{"base_weights":[-3.6126888E-8,-2.4563506E-1,2.4864256E-1,-3.2816872E-1,4.4898418E-1,3.0530465E-1,-1.0872769E0,-4.0994734E-1,2.4137855E-1,5.027171E-1,3.192973E-1,2.5806206E-1,1.1836425E0,-1.2171851E0,-1.7048277E-1,-4.952725E-1,1.552696E-1,-3.2476995E-2,7.1768576E-1,1.9763534E-1,7.5235605E-1,1.2444078E0,-1.0705829E-1,-1.2504244E0,-8.9613146E-1,-5.694031E-1,-6.1821673E-2,1.2704322E-1,1.4004985E0,-7.64498E-2,7.768732E-1,1.4411126E-1,6.0778344E-1,6.40039E-1,8.187027E-1,1.1719874E0,1.6920648E0,-1.2209609E0,-1.5142281E0,-5.890483E-1,3.9222044E-1,-9.2170365E-2,8.76151E-1,1.1951049E-1,1.4344178E-1,-1.02820866E-1,-7.229753E-2,1.7425022E-1,-1.8975319E-1,5.2312565E-1,1.1305683E0,5.7443476E-1,8.162729E-1,1.1990676E0,9.759385E-1,-1.1953337E0,-1.4174397E0],"categories":[],"categories_nodes":[],"categories_segments":[],"categories_sizes":[],"default_left":[1,1,1,1,1,1,1,1,1,0,0,1,1,1,0,1,1,1,0,1,1,1,0,1,0,1,1,1,0,1,0,1,1,1,0,1,0,1,0,0,0,0,0,0,0,0,0,0,0,0,0,0,0,0,0,0,0],"id":0,"left_children":[1,3,5,7,9,11,13,15,17,-1,-1,19,21,23,-1,25,27,29,-1,31,33,35,-1,37,-1,39,41,43,-1,45,-1,47,49,51,-1,53,-1,55,-1,-1,-1,-1,-1,-1,-1,-1,-1,-1,-1,-1,-1,-1,-1,-1,-1,-1,-1],"loss_changes":[1.6977721E3,8.018182E2,1.0460286E3,5.822666E2,1.01909485E1,5.496322E2,6.676282E1,5.2720557E2,2.0481046E2,0E0,0E0,3.7553656E2,5.3165405E1,4.133728E0,0E0,3.0511475E2,5.0237236E1,3.557039E1,0E0,2.459848E2,9.683411E0,1.895514E1,0E0,1.5993652E0,0E0,1.5343286E2,3.9594543E1,1.562481E-1,0E0,9.6293926E-2,0E0,9.98165E1,5.6661407E1,5.4651337E0,0E0,1.7983398E0,0E0,3.4100342E-1,0E0,0E0,0E0,0E0,0E0,0E0,0E0,0E0,0E0,0E0,0E0,0E0,0E0,0E0,0E0,0E0,0E0,0E0,0E0],"parents":[2147483647,0,0,1,1,2,2,3,3,4,4,5,5,6,6,7,7,8,8,11,11,12,12,13,13,15,15,16,16,17,17,19,19,20,20,21,21,23,23,25,25,26,26,27,27,29,29,31,31,32,32,33,33,35,35,37,37],"right_children":[2,4,6,8,10,12,14,16,18,-1,-1,20,22,24,-1,26,28,30,-1,32,34,36,-1,38,-1,40,42,44,-1,46,-1,48,50,52,-1,54,-1,56,-1,-1,-1,-1,-1,-1,-1,-1,-1,-1,-1,-1,-1,-1,-1,-1,-1,-1,-1],"split_conditions":[5E-1,5E-1,5E-1,5E-1,5E-1,5E-1,5E-1,5E-1,5E-1,5.0271708E-3,3.192973E-3,5E-1,5E-1,5E-1,-1.7048276E-3,5E-1,5E-1,5E-1,7.1768574E-3,5E-1,5E-1,5E-1,-1.0705829E-3,5E-1,-8.961314E-3,5E-1,5E-1,5E-1,1.4004985E-2,5E-1,7.7687316E-3,5E-1,5E-1,5E-1,8.187027E-3,5E-1,1.6920647E-2,5E-1,-1.5142281E-2,-5.890483E-3,3.9222045E-3,-9.2170364E-4,8.76151E-3,1.1951048E-3,1.4344178E-3,-1.0282086E-3,-7.229753E-4,1.7425021E-3,-1.8975319E-3,5.2312566E-3,1.1305682E-2,5.7443473E-3,8.1627285E-3,1.1990676E-2,9.759385E-3,-1.1953337E-2,-1.4174397E-2],"split_indices":[5,1,9,4,8,0,1,2,8,0,0,1,6,2,0,7,0,0,0,4,3,2,0,7,0,0,0,8,0,3,0,6,8,8,0,1,0,4,0,0,0,0,0,0,0,0,0,0,0,0,0,0,0,0,0,0,0],"split_type":[0,0,0,0,0,0,0,0,0,0,0,0,0,0,0,0,0,0,0,0,0,0,0,0,0,0,0,0,0,0,0,0,0,0,0,0,0,0,0,0,0,0,0,0,0,0,0,0,0,0,0,0,0,0,0,0,0],"sum_hessian":[2.7796E4,1.3982572E4,1.3813428E4,1.2498094E4,1.484478E3,1.3252119E4,5.613078E2,1.0929114E4,1.5689797E3,1.047566E3,4.3691208E2,1.2576945E4,6.751743E2,4.9135587E2,6.995196E1,9.495759E3,1.433356E3,9.9679724E2,5.7218243E2,1.1208163E4,1.3687819E3,6.44851E2,3.0323292E1,4.4263437E2,4.87215E1,8.1086655E3,1.3870929E3,1.402663E3,3.0692999E1,9.462899E2,5.050733E1,9.915543E3,1.2926206E3,5.1225E2,8.565318E2,5.581702E2,8.6680786E1,4.032272E2,3.9407166E1,7.946708E3,1.6195766E2,1.3444927E3,4.2600166E1,9.668331E2,4.3582983E2,1.2549675E2,8.207932E2,9.094989E3,8.205538E2,1.114193E3,1.7842754E2,3.7639417E2,1.3585587E2,4.8593243E2,7.223779E1,3.6296826E2,4.0258957E1],"tree_param":{"num_deleted":"0","num_feature":"10","num_nodes":"57","size_leaf_vector":"0"}},{"base_weights":[2.5114807E-6,-2.4317701E-1,2.4615948E-1,-3.248862E-1,4.4450232E-1,3.0225897E-1,-1.0765316E0,-4.058484E-1,2.3897453E-1,4.9769798E-1,3.1611255E-1,2.5548542E-1,1.1719059E0,-1.20516E0,-1.688022E-1,-4.9032268E-1,1.5372872E-1,-3.2146063E-2,7.105306E-1,1.9566092E-1,7.4485934E-1,1.2320722E0,-1.0602194E-1,-1.2380614E0,-8.873678E-1,-5.63714E-1,-6.1197788E-2,1.2577471E-1,1.3870016E0,-7.568699E-2,7.6926666E-1,1.4267036E-1,6.0172474E-1,6.3367224E-1,8.105388E-1,1.1603464E0,1.6754563E0,-1.2088608E0,-1.4995447E0,-5.8316356E-1,3.8832372E-1,-9.1249295E-2,8.6760676E-1,1.18316606E-1,1.4201085E-1,-1.0180072E-1,-7.157526E-2,1.7250817E-1,-1.8785828E-1,5.179028E-1,1.1193612E0,5.687101E-1,8.081832E-1,1.1871443E0,9.66335E-1,-1.1834553E0,-1.403678E0],"categories":[],"categories_nodes":[],"categories_segments":[],"categories_sizes":[],"default_left":[1,1,1,1,1,1,1,1,1,0,0,1,1,1,0,1,1,1,0,1,1,1,0,1,0,1,1,1,0,1,0,1,1,1,0,1,0,1,0,0,0,0,0,0,0,0,0,0,0,0,0,0,0,0,0,0,0],"id":1,"left_children":[1,3,5,7,9,11,13,15,17,-1,-1,19,21,23,-1,25,27,29,-1,31,33,35,-1,37,-1,39,41,43,-1,45,-1,47,49,51,-1,53,-1,55,-1,-1,-1,-1,-1,-1,-1,-1,-1,-1,-1,-1,-1,-1,-1,-1,-1,-1,-1],"loss_changes":[1.6639873E3,7.858725E2,1.025381E3,5.7069446E2,9.988068E0,5.3878796E2,6.544928E1,5.167372E2,2.0074144E2,0E0,0E0,3.6809186E2,5.211853E1,4.0491943E0,0E0,2.9905493E2,4.9274784E1,3.4875584E1,0E0,2.4110742E2,9.489258E0,1.8594482E1,0E0,1.5744629E0,0E0,1.5038916E2,3.8823555E1,1.5316772E-1,0E0,9.442663E-2,0E0,9.783174E1,5.554901E1,5.358841E0,0E0,1.7598877E0,0E0,3.394165E-1,0E0,0E0,0E0,0E0,0E0,0E0,0E0,0E0,0E0,0E0,0E0,0E0,0E0,0E0,0E0,0E0,0E0,0E0,0E0],"parents":[2147483647,0,0,1,1,2,2,3,3,4,4,5,5,6,6,7,7,8,8,11,11,12,12,13,13,15,15,16,16,17,17,19,19,20,20,21,21,23,23,25,25,26,26,27,27,29,29,31,31,32,32,33,33,35,35,37,37],"right_children":[2,4,6,8,10,12,14,16,18,-1,-1,20,22,24,-1,26,28,30,-1,32,34,36,-1,38,-1,40,42,44,-1,46,-1,48,50,52,-1,54,-1,56,-1,-1,-1,-1,-1,-1,-1,-1,-1,-1,-1,-1,-1,-1,-1,-1,-1,-1,-1],"split_conditions":[5E-1,5E-1,5E-1,5E-1,5E-1,5E-1,5E-1,5E-1,5E-1,4.9769795E-3,3.1611254E-3,5E-1,5E-1,5E-1,-1.6880219E-3,5E-1,5E-1,5E-1,7.105306E-3,5E-1,5E-1,5E-1,-1.0602194E-3,5E-1,-8.873678E-3,5E-1,5E-1,5E-1,1.3870016E-2,5E-1,7.6926663E-3,5E-1,5E-1,5E-1,8.105388E-3,5E-1,1.6754562E-2,5E-1,-1.4995447E-2,-5.8316356E-3,3.8832373E-3,-9.124929E-4,8.676067E-3,1.183166E-3,1.4201085E-3,-1.0180072E-3,-7.157526E-4,1.7250816E-3,-1.8785828E-3,5.179028E-3,1.1193612E-2,5.687101E-3,8.081832E-3,1.1871442E-2,9.66335E-3,-1.1834553E-2,-1.403678E-2],"split_indices":[5,1,9,4,8,0,1,2,8,0,0,1,6,2,0,7,0,0,0,4,3,2,0,7,0,0,0,8,0,3,0,6,8,8,0,1,0,4,0,0,0,0,0,0,0,0,0,0,0,0,0,0,0,0,0,0,0],"split_type":[0,0,0,0,0,0,0,0,0,0,0,0,0,0,0,0,0,0,0,0,0,0,0,0,0,0,0,0,0,0,0,0,0,0,0,0,0,0,0,0,0,0,0,0,0,0,0,0,0,0,0,0,0,0,0,0,0],"sum_hessian":[2.7795826E4,1.3982483E4,1.3813343E4,1.2498013E4,1.4844703E3,1.3252054E4,5.6128955E2,1.0929042E4,1.5689714E3,1.0475594E3,4.3691095E2,1.2576904E4,6.751489E2,4.9133768E2,6.9951904E1,9.4956875E3,1.4333539E3,9.967964E2,5.7217505E2,1.1208143E4,1.3687621E3,6.448256E2,3.032328E1,4.4261716E2,4.872052E1,8.1085957E3,1.3870918E3,1.4026624E3,3.0691494E1,9.462898E2,5.0506573E1,9.915535E3,1.2926073E3,5.122447E2,8.5651746E2,5.5815106E2,8.667458E1,4.0321225E2,3.940491E1,7.9466387E3,1.6195703E2,1.3444924E3,4.259935E1,9.6683276E2,4.358296E2,1.2549672E2,8.207931E2,9.094982E3,8.20553E2,1.1141854E3,1.7842184E2,3.7639105E2,1.358536E2,4.8591498E2,7.223607E1,3.6295532E2,4.025693E1],"tree_param":{"num_deleted":"0","num_feature":"10","num_nodes":"57","size_leaf_vector":"0"}},{"base_weights":[4.8675706E-6,-2.4074672E-1,2.43704E-1,-3.2164073E-1,4.400695E-1,2.9924646E-1,-1.0659609E0,-4.0179586E-1,2.3659669E-1,4.927349E-1,3.1296083E-1,2.5293598E-1,1.1603717E0,-1.1933409E0,-1.6713808E-1,-4.8542958E-1,1.5220362E-1,-3.181893E-2,7.034645E-1,1.9370678E-1,7.374583E-1,1.2199535E0,-1.0499548E-1,-1.2259147E0,-8.787242E-1,-5.580914E-1,-6.0580473E-2,1.24519E-1,1.3737632E0,-7.4932225E-2,7.61757E-1,1.4124392E-1,5.957382E-1,6.273821E-1,8.024828E-1,1.1488988E0,1.6592419E0,-1.1969682E0,-1.4851671E0,-5.773475E-1,3.8446888E-1,-9.033766E-2,8.591775E-1,1.1713493E-1,1.4059399E-1,-1.00791E-1,-7.086067E-2,1.707836E-1,-1.8598239E-1,5.127385E-1,1.1083347E0,5.6305206E-1,8.001999E-1,1.1754227E0,9.568707E-1,-1.1717775E0,-1.390184E0],"categories":[],"categories_nodes":[],"categories_segments":[],"categories_sizes":[],"default_left":[1,1,1,1,1,1,1,1,1,0,0,1,1,1,0,1,1,1,0,1,1,1,0,1,0,1,1,1,0,1,0,1,1,1,0,1,0,1,0,0,0,0,0,0,0,0,0,0,0,0,0,0,0,0,0,0,0],"id":2,"left_children":[1,3,5,7,9,11,13,15,17,-1,-1,19,21,23,-1,25,27,29,-1,31,33,35,-1,37,-1,39,41,43,-1,45,-1,47,49,51,-1,53,-1,55,-1,-1,-1,-1,-1,-1,-1,-1,-1,-1,-1,-1,-1,-1,-1,-1,-1,-1,-1],"loss_changes":[1.6308951E3,7.702528E2,1.00518396E3,5.5936E2,9.789734E0,5.282189E2,6.417206E1,5.0648608E2,1.9675964E2,0E0,0E0,3.608128E2,5.1099304E1,3.9677734E0,0E0,2.9312524E2,4.83363E1,3.4195267E1,0E0,2.363346E2,9.300354E0,1.8249817E1,0E0,1.5510864E0,0E0,1.4740796E2,3.806878E1,1.5014458E-1,0E0,9.259415E-2,0E0,9.588635E1,5.446692E1,5.255188E0,0E0,1.7229614E0,0E0,3.381958E-1,0E0,0E0,0E0,0E0,0E0,0E0,0E0,0E0,0E0,0E0,0E0,0E0,0E0,0E0,0E0,0E0,0E0,0E0,0E0],"parents":[2147483647,0,0,1,1,2,2,3,3,4,4,5,5,6,6,7,7,8,8,11,11,12,12,13,13,15,15,16,16,17,17,19,19,20,20,21,21,23,23,25,25,26,26,27,27,29,29,31,31,32,32,33,33,35,35,37,37],"right_children":[2,4,6,8,10,12,14,16,18,-1,-1,20,22,24,-1,26,28,30,-1,32,34,36,-1,38,-1,40,42,44,-1,46,-1,48,50,52,-1,54,-1,56,-1,-1,-1,-1,-1,-1,-1,-1,-1,-1,-1,-1,-1,-1,-1,-1,-1,-1,-1],"split_conditions":[5E-1,5E-1,5E-1,5E-1,5E-1,5E-1,5E-1,5E-1,5E-1,4.927349E-3,3.1296082E-3,5E-1,5E-1,5E-1,-1.6713808E-3,5E-1,5E-1,5E-1,7.034645E-3,5E-1,5E-1,5E-1,-1.0499548E-3,5E-1,-8.787242E-3,5E-1,5E-1,5E-1,1.3737632E-2,5E-1,7.61757E-3,5E-1,5E-1,5E-1,8.024828E-3,5E-1,1.6592419E-2,5E-1,-1.4851671E-2,-5.773475E-3,3.8446886E-3,-9.0337655E-4,8.591775E-3,1.1713493E-3,1.4059399E-3,-1.00791E-3,-7.086067E-4,1.7078359E-3,-1.8598238E-3,5.1273853E-3,1.1083347E-2,5.6305206E-3,8.001999E-3,1.1754227E-2,9.568706E-3,-1.1717775E-2,-1.390184E-2],"split_indices":[5,1,9,4,8,0,1,2,8,0,0,1,6,2,0,7,0,0,0,4,3,2,0,7,0,0,0,8,0,3,0,6,8,8,0,1,0,4,0,0,0,0,0,0,0,0,0,0,0,0,0,0,0,0,0,0,0],"split_type":[0,0,0,0,0,0,0,0,0,0,0,0,0,0,0,0,0,0,0,0,0,0,0,0,0,0,0,0,0,0,0,0,0,0,0,0,0,0,0,0,0,0,0,0,0,0,0,0,0,0,0,0,0,0,0,0,0],"sum_hessian":[2.7795314E4,1.3982221E4,1.3813093E4,1.2497773E4,1.4844475E3,1.3251857E4,5.612355E2,1.0928826E4,1.5689468E3,1.0475398E3,4.3690768E2,1.2576784E4,6.750737E2,4.912837E2,6.995176E1,9.495479E3,1.4333477E3,9.967936E2,5.7215326E2,1.120808E4,1.3687037E3,6.447504E2,3.0323257E1,4.4256607E2,4.8717625E1,8.10839E3,1.3870885E3,1.4026606E3,3.0687038E1,9.462893E2,5.050431E1,9.915513E3,1.2925677E3,5.1222876E2,8.56475E2,5.5809424E2,8.665622E1,4.0316785E2,3.9398224E1,7.946435E3,1.6195518E2,1.3444916E3,4.2596928E1,9.668317E2,4.3582892E2,1.2549661E2,8.2079266E2,9.094962E3,8.2055084E2,1.1141628E3,1.7840495E2,3.7638187E2,1.3584691E2,4.8586325E2,7.223097E1,3.629169E2,4.0250946E1],"tree_param":{"num_deleted":"0","num_feature":"10","num_nodes":"57","size_leaf_vector":"0"}},{"base_weights":[7.193869E-6,-2.3834363E-1,2.4127588E-1,-3.1843168E-1,4.3568528E-1,2.9626688E-1,-1.0555595E0,-3.977889E-1,2.3424506E-1,4.8782724E-1,3.0984235E-1,2.504136E-1,1.1490332E0,-1.1817212E0,-1.6549096E-1,-4.8059228E-1,1.5069406E-1,-3.149492E-2,6.964859E-1,1.9177288E-1,7.3015094E-1,1.2080445E0,-1.0397951E-1,-1.2139773E0,-8.7019706E-1,-5.52534E-1,-5.996926E-2,1.232759E-1,1.360775E0,-7.418472E-2,7.543418E-1,1.3983193E-1,5.898232E-1,6.211666E-1,7.9453224E-1,1.1376383E0,1.6434069E0,-1.1852765E0,-1.4710853E0,-5.715991E-1,3.8065466E-1,-8.943497E-2,8.5086095E-1,1.15965E-1,1.3919163E-1,-9.9791035E-2,-7.015294E-2,1.6907652E-1,-1.8412556E-1,5.076329E-1,1.0974833E0,5.57459E-1,7.923203E-1,1.1638962E0,9.4754136E-1,-1.1602938E0,-1.3769488E0],"categories":[],"categories_nodes":[],"categories_segments":[],"categories_sizes":[],"default_left":[1,1,1,1,1,1,1,1,1,0,0,1,1,1,0,1,1,1,0,1,1,1,0,1,0,1,1,1,0,1,0,1,1,1,0,1,0,1,0,0,0,0,0,0,0,0,0,0,0,0,0,0,0,0,0,0,0],"id":3,"left_children":[1,3,5,7,9,11,13,15,17,-1,-1,19,21,23,-1,25,27,29,-1,31,33,35,-1,37,-1,39,41,43,-1,45,-1,47,49,51,-1,53,-1,55,-1,-1,-1,-1,-1,-1,-1,-1,-1,-1,-1,-1,-1,-1,-1,-1,-1,-1,-1],"loss_changes":[1.5984802E3,7.5495306E2,9.854258E2,5.482582E2,9.595642E0,5.1791504E2,6.292932E1,4.96448E2,1.928628E2,0E0,0E0,3.536944E2,5.010675E1,3.8894043E0,0E0,2.8732324E2,4.7420963E1,3.352901E1,0E0,2.316644E2,9.116394E0,1.7920288E1,0E0,1.5289307E0,0E0,1.4448853E2,3.7329815E1,1.4718628E-1,0E0,9.079647E-2,0E0,9.397983E1,5.341397E1,5.1541595E0,0E0,1.6875E0,0E0,3.373413E-1,0E0,0E0,0E0,0E0,0E0,0E0,0E0,0E0,0E0,0E0,0E0,0E0,0E0,0E0,0E0,0E0,0E0,0E0,0E0],"parents":[2147483647,0,0,1,1,2,2,3,3,4,4,5,5,6,6,7,7,8,8,11,11,12,12,13,13,15,15,16,16,17,17,19,19,20,20,21,21,23,23,25,25,26,26,27,27,29,29,31,31,32,32,33,33,35,35,37,37],"right_children":[2,4,6,8,10,12,14,16,18,-1,-1,20,22,24,-1,26,28,30,-1,32,34,36,-1,38,-1,40,42,44,-1,46,-1,48,50,52,-1,54,-1,56,-1,-1,-1,-1,-1,-1,-1,-1,-1,-1,-1,-1,-1,-1,-1,-1,-1,-1,-1],"split_conditions":[5E-1,5E-1,5E-1,5E-1,5E-1,5E-1,5E-1,5E-1,5E-1,4.8782723E-3,3.0984234E-3,5E-1,5E-1,5E-1,-1.6549095E-3,5E-1,5E-1,5E-1,6.9648586E-3,5E-1,5E-1,5E-1,-1.0397951E-3,5E-1,-8.701971E-3,5E-1,5E-1,5E-1,1.360775E-2,5E-1,7.5434176E-3,5E-1,5E-1,5E-1,7.945322E-3,5E-1,1.6434068E-2,5E-1,-1.4710853E-2,-5.715991E-3,3.8065466E-3,-8.9434965E-4,8.50861E-3,1.15965E-3,1.3919162E-3,-9.979103E-4,-7.015294E-4,1.6907651E-3,-1.8412556E-3,5.076329E-3,1.0974833E-2,5.57459E-3,7.923203E-3,1.1638962E-2,9.475414E-3,-1.1602938E-2,-1.3769488E-2],"split_indices":[5,1,9,4,8,0,1,2,8,0,0,1,6,2,0,7,0,0,0,4,3,2,0,7,0,0,0,8,0,3,0,6,8,8,0,1,0,4,0,0,0,0,0,0,0,0,0,0,0,0,0,0,0,0,0,0,0],"split_type":[0,0,0,0,0,0,0,0,0,0,0,0,0,0,0,0,0,0,0,0,0,0,0,0,0,0,0,0,0,0,0,0,0,0,0,0,0,0,0,0,0,0,0,0,0,0,0,0,0,0,0,0,0,0,0,0,0],"sum_hessian":[2.7794473E4,1.3981789E4,1.3812684E4,1.2497379E4,1.4844099E3,1.3251536E4,5.611466E2,1.0928472E4,1.5689067E3,1.0475077E3,4.3690225E2,1.2576586E4,6.7495026E2,4.911951E2,6.995151E1,9.495135E3,1.4333376E3,9.9678925E2,5.7211743E2,1.1207979E4,1.3686079E3,6.446271E2,3.0323214E1,4.4248224E2,4.8712868E1,8.1080513E3,1.3870831E3,1.402658E3,3.0679716E1,9.4628864E2,5.0500607E1,9.915476E3,1.292503E3,5.1220264E2,8.564052E2,5.58001E2,8.662605E1,4.03095E2,3.9387234E1,7.946099E3,1.6195218E2,1.3444901E3,4.2592953E1,9.668301E2,4.3582785E2,1.25496445E2,8.2079224E2,9.094928E3,8.205473E2,1.1141257E3,1.7837724E2,3.7636676E2,1.3583589E2,4.8577838E2,7.222261E1,3.6285388E2,4.0241116E1],"tree_param":{"num_deleted":"0","num_feature":"10","num_nodes":"57","size_leaf_vector":"0"}},{"base_weights":[9.500919E-6,-2.3596726E-1,2.3887469E-1,-3.1525838E-1,4.3134886E-1,2.9331976E-1,-1.0453229E0,-3.938267E-1,2.3191911E-1,4.829741E-1,3.0675608E-1,2.4791788E-1,1.1378852E0,-1.1702951E0,-1.6386014E-1,-4.758096E-1,1.4919981E-1,-3.1174276E-2,6.8959296E-1,1.8985897E-1,7.229353E-1,1.1963395E0,-1.02972925E-1,-1.202243E0,-8.617849E-1,-5.470405E-1,-5.9364304E-2,1.2204522E-1,1.3480288E0,-7.344473E-2,7.470193E-1,1.384343E-1,5.8397794E-1,6.150246E-1,7.866851E-1,1.1265603E0,1.6279371E0,-1.1737798E0,-1.4572884E0,-5.6591696E-1,3.768812E-1,-8.8541314E-2,8.42654E-1,1.148067E-1,1.3780342E-1,-9.8801196E-2,-6.945231E-2,1.6738679E-1,-1.8228763E-1,5.025843E-1,1.0868027E0,5.519298E-1,7.845424E-1,1.15256E0,9.383438E-1,-1.1489986E0,-1.3639643E0],"categories":[],"categories_nodes":[],"categories_segments":[],"categories_sizes":[],"default_left":[1,1,1,1,1,1,1,1,1,0,0,1,1,1,0,1,1,1,0,1,1,1,0,1,0,1,1,1,0,1,0,1,1,1,0,1,0,1,0,0,0,0,0,0,0,0,0,0,0,0,0,0,0,0,0,0,0],"id":4,"left_children":[1,3,5,7,9,11,13,15,17,-1,-1,19,21,23,-1,25,27,29,-1,31,33,35,-1,37,-1,39,41,43,-1,45,-1,47,49,51,-1,53,-1,55,-1,-1,-1,-1,-1,-1,-1,-1,-1,-1,-1,-1,-1,-1,-1,-1,-1,-1,-1],"loss_changes":[1.5667281E3,7.399651E2,9.66095E2,5.373834E2,9.405853E0,5.0786768E2,6.171991E1,4.8661743E2,1.890488E2,0E0,0E0,3.467323E2,4.913977E1,3.8138428E0,0E0,2.8164502E2,4.6528046E1,3.287654E1,0E0,2.2709357E2,8.937134E0,1.760498E1,0E0,1.5080566E0,0E0,1.4162964E2,3.660626E1,1.4428711E-1,0E0,8.903599E-2,0E0,9.211136E1,5.2389038E1,5.0556793E0,0E0,1.6533203E0,0E0,3.3685303E-1,0E0,0E0,0E0,0E0,0E0,0E0,0E0,0E0,0E0,0E0,0E0,0E0,0E0,0E0,0E0,0E0,0E0,0E0,0E0],"parents":[2147483647,0,0,1,1,2,2,3,3,4,4,5,5,6,6,7,7,8,8,11,11,12,12,13,13,15,15,16,16,17,17,19,19,20,20,21,21,23,23,25,25,26,26,27,27,29,29,31,31,32,32,33,33,35,35,37,37],"right_children":[2,4,6,8,10,12,14,16,18,-1,-1,20,22,24,-1,26,28,30,-1,32,34,36,-1,38,-1,40,42,44,-1,46,-1,48,50,52,-1,54,-1,56,-1,-1,-1,-1,-1,-1,-1,-1,-1,-1,-1,-1,-1,-1,-1,-1,-1,-1,-1],"split_conditions":[5E-1,5E-1,5E-1,5E-1,5E-1,5E-1,5E-1,5E-1,5E-1,4.829741E-3,3.0675607E-3,5E-1,5E-1,5E-1,-1.6386014E-3,5E-1,5E-1,5E-1,6.8959296E-3,5E-1,5E-1,5E-1,-1.0297293E-3,5E-1,-8.617848E-3,5E-1,5E-1,5E-1,1.3480287E-2,5E-1,7.470193E-3,5E-1,5E-1,5E-1,7.866851E-3,5E-1,1.627937E-2,5E-1,-1.4572884E-2,-5.6591695E-3,3.768812E-3,-8.8541314E-4,8.42654E-3,1.148067E-3,1.3780341E-3,-9.88012E-4,-6.9452304E-4,1.6738678E-3,-1.8228763E-3,5.0258427E-3,1.0868027E-2,5.5192974E-3,7.845423E-3,1.1525599E-2,9.383438E-3,-1.14899855E-2,-1.3639643E-2],"split_indices":[5,1,9,4,8,0,1,2,8,0,0,1,6,2,0,7,0,0,0,4,3,2,0,7,0,0,0,8,0,3,0,6,8,8,0,1,0,4,0,0,0,0,0,0,0,0,0,0,0,0,0,0,0,0,0,0,0],"split_type":[0,0,0,0,0,0,0,0,0,0,0,0,0,0,0,0,0,0,0,0,0,0,0,0,0,0,0,0,0,0,0,0,0,0,0,0,0,0,0,0,0,0,0,0,0,0,0,0,0,0,0,0,0,0,0,0,0],"sum_hessian":[2.7793312E4,1.3981194E4,1.3812117E4,1.2496836E4,1.484358E3,1.3251094E4,5.6102405E2,1.0927985E4,1.5688513E3,1.0474633E3,4.3689478E2,1.2576313E4,6.747799E2,4.9107288E2,6.995117E1,9.494661E3,1.4333237E3,9.9678326E2,5.7206805E2,1.1207838E4,1.3684756E3,6.444568E2,3.0323154E1,4.4236658E2,4.87063E1,8.1075854E3,1.3870758E3,1.402654E3,3.0669613E1,9.462878E2,5.049549E1,9.915424E3,1.2924137E3,5.121667E2,8.5630896E2,5.578723E2,8.658444E1,4.029945E2,3.9372074E1,7.945637E3,1.6194798E2,1.3444884E3,4.2587463E1,9.6682776E2,4.3582632E2,1.2549624E2,8.207915E2,9.094882E3,8.205424E2,1.1140747E3,1.78339E2,3.7634595E2,1.3582072E2,4.8566125E2,7.2211075E1,3.6276697E2,4.0227543E1],"tree_param":{"num_deleted":"0","num_feature":"10","num_nodes":"57","size_leaf_vector":"0"}},{"base_weights":[1.1800682E-5,-2.3361726E-1,2.3650008E-1,-3.1212038E-1,4.2705968E-1,2.9040465E-1,-1.0352461E0,-3.8990867E-1,2.2961846E-1,4.781747E-1,3.0370232E-1,2.4544854E-1,1.1269215E0,-1.1590569E0,-1.6224562E-1,-4.7108093E-1,1.4772078E-1,-3.0856946E-2,6.8278414E-1,1.8796492E-1,7.1580946E-1,1.1848315E0,-1.0197632E-1,-1.1907057E0,-8.534836E-1,-5.4161006E-1,-5.8765702E-2,1.2082692E-1,1.3355166E0,-7.271217E-2,7.3978794E-1,1.3705097E-1,5.782014E-1,6.0895485E-1,7.7893865E-1,1.1156591E0,1.6128188E0,-1.1624725E0,-1.4437665E0,-5.603E-1,3.731478E-1,-8.765682E-2,8.3455443E-1,1.1366002E-1,1.3642925E-1,-9.78212E-2,-6.875872E-2,1.6571426E-1,-1.8046814E-1,4.9759203E-1,1.0762872E0,5.464635E-1,7.768642E-1,1.1414076E0,9.292751E-1,-1.1378864E0,-1.3512217E0],"categories":[],"categories_nodes":[],"categories_segments":[],"categories_sizes":[],"default_left":[1,1,1,1,1,1,1,1,1,0,0,1,1,1,0,1,1,1,0,1,1,1,0,1,0,1,1,1,0,1,0,1,1,1,0,1,0,1,0,0,0,0,0,0,0,0,0,0,0,0,0,0,0,0,0,0,0],"id":5,"left_children":[1,3,5,7,9,11,13,15,17,-1,-1,19,21,23,-1,25,27,29,-1,31,33,35,-1,37,-1,39,41,43,-1,45,-1,47,49,51,-1,53,-1,55,-1,-1,-1,-1,-1,-1,-1,-1,-1,-1,-1,-1,-1,-1,-1,-1,-1,-1,-1],"loss_changes":[1.5356246E3,7.252833E2,9.471809E2,5.267312E2,9.220154E0,4.9806763E2,6.054254E1,4.7699E2,1.853157E2,0E0,0E0,3.3992224E2,4.819763E1,3.74115E0,0E0,2.7608643E2,4.5656708E1,3.2237556E1,0E0,2.2261981E2,8.762512E0,1.7302979E1,0E0,1.4883423E0,0E0,1.3882983E2,3.5897778E1,1.4144897E-1,0E0,8.730841E-2,0E0,9.0280136E1,5.139093E1,4.959564E0,0E0,1.6207275E0,0E0,3.366089E-1,0E0,0E0,0E0,0E0,0E0,0E0,0E0,0E0,0E0,0E0,0E0,0E0,0E0,0E0,0E0,0E0,0E0,0E0,0E0],"parents":[2147483647,0,0,1,1,2,2,3,3,4,4,5,5,6,6,7,7,8,8,11,11,12,12,13,13,15,15,16,16,17,17,19,19,20,20,21,21,23,23,25,25,26,26,27,27,29,29,31,31,32,32,33,33,35,35,37,37],"right_children":[2,4,6,8,10,12,14,16,18,-1,-1,20,22,24,-1,26,28,30,-1,32,34,36,-1,38,-1,40,42,44,-1,46,-1,48,50,52,-1,54,-1,56,-1,-1,-1,-1,-1,-1,-1,-1,-1,-1,-1,-1,-1,-1,-1,-1,-1,-1,-1],"split_conditions":[5E-1,5E-1,5E-1,5E-1,5E-1,5E-1,5E-1,5E-1,5E-1,4.781747E-3,3.0370231E-3,5E-1,5E-1,5E-1,-1.6224561E-3,5E-1,5E-1,5E-1,6.827841E-3,5E-1,5E-1,5E-1,-1.0197632E-3,5E-1,-8.534836E-3,5E-1,5E-1,5E-1,1.3355166E-2,5E-1,7.3978794E-3,5E-1,5E-1,5E-1,7.7893864E-3,5E-1,1.6128188E-2,5E-1,-1.4437664E-2,-5.6029996E-3,3.7314778E-3,-8.7656814E-4,8.345544E-3,1.1366002E-3,1.3642925E-3,-9.78212E-4,-6.875872E-4,1.6571427E-3,-1.8046814E-3,4.97592E-3,1.0762871E-2,5.464635E-3,7.7686417E-3,1.1414076E-2,9.292751E-3,-1.1378864E-2,-1.35122165E-2],"split_indices":[5,1,9,4,8,0,1,2,8,0,0,1,6,2,0,7,0,0,0,4,3,2,0,7,0,0,0,8,0,3,0,6,8,8,0,1,0,4,0,0,0,0,0,0,0,0,0,0,0,0,0,0,0,0,0,0,0],"split_type":[0,0,0,0,0,0,0,0,0,0,0,0,0,0,0,0,0,0,0,0,0,0,0,0,0,0,0,0,0,0,0,0,0,0,0,0,0,0,0,0,0,0,0,0,0,0,0,0,0,0,0,0,0,0,0,0,0],"sum_hessian":[2.779184E4,1.398044E4,1.38114E4,1.2496147E4,1.4842924E3,1.3250532E4,5.608688E2,1.0927367E4,1.568781E3,1.047407E3,4.368853E2,1.2575968E4,6.745642E2,4.9091806E2,6.995074E1,9.494061E3,1.433306E3,9.967756E2,5.7200543E2,1.1207659E4,1.3683081E3,6.4424115E2,3.0323082E1,4.4222006E2,4.869799E1,8.106994E3,1.3870664E3,1.4026493E3,3.065681E1,9.4628656E2,5.0489014E1,9.915359E3,1.2923005E3,5.1212103E2,8.561871E2,5.577094E2,8.6531746E1,4.028672E2,3.9352867E1,7.945052E3,1.619427E2,1.3444858E3,4.2580513E1,9.668248E2,4.3582443E2,1.2549596E2,8.2079065E2,9.094823E3,8.20536E2,1.1140099E3,1.7829059E2,3.7631955E2,1.358015E2,4.8551294E2,7.219645E1,3.6265683E2,4.0210354E1],"tree_param":{"num_deleted":"0","num_feature":"10","num_nodes":"57","size_leaf_vector":"0"}},{"base_weights":[1.3918002E-5,-2.3129326E-1,2.3415132E-1,-3.0901712E-1,4.2281708E-1,2.8752074E-1,-1.0253247E0,-3.8603413E-1,2.2734268E-1,4.7342834E-1,3.006801E-1,2.4300492E-1,1.1161368E0,-1.148001E0,-1.6064717E-1,-4.6640533E-1,1.4625704E-1,-3.0542864E-2,6.760574E-1,1.8609007E-1,7.0877147E-1,1.173515E0,-1.00989416E-1,-1.179359E0,-8.452917E-1,-5.362416E-1,-5.817304E-2,1.19621105E-1,1.323231E0,-7.198688E-2,7.3264503E-1,1.356813E-1,5.724922E-1,6.029558E-1,7.7129084E-1,1.1049296E0,1.5980389E0,-1.1513485E0,-1.4305105E0,-5.5474734E-1,3.6945352E-1,-8.678102E-2,8.265601E-1,1.12525314E-1,1.3506867E-1,-9.685119E-2,-6.807199E-2,1.6405839E-1,-1.7866762E-1,4.9265507E-1,1.0659329E0,5.4105896E-1,7.69283E-1,1.130434E0,9.203317E-1,-1.1269517E0,-1.3387132E0],"categories":[],"categories_nodes":[],"categories_segments":[],"categories_sizes":[],"default_left":[1,1,1,1,1,1,1,1,1,0,0,1,1,1,0,1,1,1,0,1,1,1,0,1,0,1,1,1,0,1,0,1,1,1,0,1,0,1,0,0,0,0,0,0,0,0,0,0,0,0,0,0,0,0,0,0,0],"id":6,"left_children":[1,3,5,7,9,11,13,15,17,-1,-1,19,21,23,-1,25,27,29,-1,31,33,35,-1,37,-1,39,41,43,-1,45,-1,47,49,51,-1,53,-1,55,-1,-1,-1,-1,-1,-1,-1,-1,-1,-1,-1,-1,-1,-1,-1,-1,-1,-1,-1],"loss_changes":[1.5051536E3,7.1090063E2,9.286723E2,5.16296E2,9.038483E0,4.8850696E2,5.9396057E1,4.675614E2,1.8166129E2,0E0,0E0,3.3326025E2,4.727948E1,3.6708374E0,0E0,2.7064697E2,4.480625E1,3.161166E1,0E0,2.1824106E2,8.592346E0,1.7013672E1,0E0,1.4697876E0,0E0,1.3608765E2,3.5203987E1,1.3866043E-1,0E0,8.5617065E-2,0E0,8.8485565E1,5.0418884E1,4.8658447E0,0E0,1.5891724E0,0E0,3.3673096E-1,0E0,0E0,0E0,0E0,0E0,0E0,0E0,0E0,0E0,0E0,0E0,0E0,0E0,0E0,0E0,0E0,0E0,0E0,0E0],"parents":[2147483647,0,0,1,1,2,2,3,3,4,4,5,5,6,6,7,7,8,8,11,11,12,12,13,13,15,15,16,16,17,17,19,19,20,20,21,21,23,23,25,25,26,26,27,27,29,29,31,31,32,32,33,33,35,35,37,37],"right_children":[2,4,6,8,10,12,14,16,18,-1,-1,20,22,24,-1,26,28,30,-1,32,34,36,-1,38,-1,40,42,44,-1,46,-1,48,50,52,-1,54,-1,56,-1,-1,-1,-1,-1,-1,-1,-1,-1,-1,-1,-1,-1,-1,-1,-1,-1,-1,-1],"split_conditions":[5E-1,5E-1,5E-1,5E-1,5E-1,5E-1,5E-1,5E-1,5E-1,4.7342833E-3,3.006801E-3,5E-1,5E-1,5E-1,-1.6064716E-3,5E-1,5E-1,5E-1,6.760574E-3,5E-1,5E-1,5E-1,-1.0098942E-3,5E-1,-8.4529165E-3,5E-1,5E-1,5E-1,1.3232309E-2,5E-1,7.32645E-3,5E-1,5E-1,5E-1,7.712908E-3,5E-1,1.5980389E-2,5E-1,-1.43051045E-2,-5.547473E-3,3.694535E-3,-8.6781016E-4,8.265601E-3,1.1252532E-3,1.3506867E-3,-9.685119E-4,-6.807199E-4,1.6405839E-3,-1.7866761E-3,4.9265507E-3,1.0659329E-2,5.4105893E-3,7.6928297E-3,1.130434E-2,9.203317E-3,-1.1269516E-2,-1.33871315E-2],"split_indices":[5,1,9,4,8,0,1,2,8,0,0,1,6,2,0,7,0,0,0,4,3,2,0,7,0,0,0,8,0,3,0,6,8,8,0,1,0,4,0,0,0,0,0,0,0,0,0,0,0,0,0,0,0,0,0,0,0],"split_type":[0,0,0,0,0,0,0,0,0,0,0,0,0,0,0,0,0,0,0,0,0,0,0,0,0,0,0,0,0,0,0,0,0,0,0,0,0,0,0,0,0,0,0,0,0,0,0,0,0,0,0,0,0,0,0,0,0],"sum_hessian":[2.779007E4,1.3979532E4,1.3810538E4,1.2495319E4,1.4842133E3,1.3249856E4,5.606818E2,1.0926623E4,1.5686964E3,1.0473394E3,4.3687393E2,1.2575552E4,6.7430444E2,4.9073163E2,6.995022E1,9.493338E3,1.4332848E3,9.967663E2,5.719301E2,1.1207445E4,1.3681066E3,6.4398145E2,3.0322992E1,4.4204364E2,4.8687973E1,8.106283E3,1.387055E3,1.4026434E3,3.0641392E1,9.462851E2,5.048121E1,9.915281E3,1.2921642E3,5.1206616E2,8.5604034E2,5.575132E2,8.646828E1,4.027139E2,3.932974E1,7.9443467E3,1.6193634E2,1.3444829E3,4.2572136E1,9.668213E2,4.3582214E2,1.25495605E2,8.207895E2,9.094753E3,8.205285E2,1.113932E3,1.7823227E2,3.762878E2,1.3577835E2,4.8533435E2,7.217885E1,3.6252426E2,4.0189644E1],"tree_param":{"num_deleted":"0","num_feature":"10","num_nodes":"57","size_leaf_vector":"0"}},{"base_weights":[1.6234007E-5,-2.2899453E-1,2.3182848E-1,-3.059477E-1,4.1862017E-1,2.8466815E-1,-1.0155548E0,-3.82202E-1,2.2509159E-1,4.6873394E-1,2.976892E-1,2.4058717E-1,1.1055256E0,-1.1371219E0,-1.5906487E-1,-4.6178144E-1,1.4480796E-1,-3.0231895E-2,6.6941166E-1,1.8423474E-1,7.0182E-1,1.162384E0,-1.00012064E-1,-1.1681979E0,-8.372064E-1,-5.3093344E-1,-5.758657E-2,1.1842719E-1,1.3111647E0,-7.1268715E-2,7.255896E-1,1.3432573E-1,5.668494E-1,5.9702665E-1,7.6374006E-1,1.0943667E0,1.5835857E0,-1.1404029E0,-1.4175116E0,-5.492571E-1,3.657986E-1,-8.5914135E-2,8.1866825E-1,1.1140165E-1,1.3372186E-1,-9.589023E-2,-6.739208E-2,1.6241948E-1,-1.7688514E-1,4.8777294E-1,1.0557348E0,5.357155E-1,7.617974E-1,1.1196339E0,9.115108E-1,-1.1161896E0,-1.3264316E0],"categories":[],"categories_nodes":[],"categories_segments":[],"categories_sizes":[],"default_left":[1,1,1,1,1,1,1,1,1,0,0,1,1,1,0,1,1,1,0,1,1,1,0,1,0,1,1,1,0,1,0,1,1,1,0,1,0,1,0,0,0,0,0,0,0,0,0,0,0,0,0,0,0,0,0,0,0],"id":7,"left_children":[1,3,5,7,9,11,13,15,17,-1,-1,19,21,23,-1,25,27,29,-1,31,33,35,-1,37,-1,39,41,43,-1,45,-1,47,49,51,-1,53,-1,55,-1,-1,-1,-1,-1,-1,-1,-1,-1,-1,-1,-1,-1,-1,-1,-1,-1,-1,-1],"loss_changes":[1.4753022E3,6.9680927E2,9.105593E2,5.0607336E2,8.860748E0,4.7917725E2,5.827942E1,4.5832605E2,1.7808386E2,0E0,0E0,3.2674274E2,4.6384155E1,3.6030273E0,0E0,2.6532104E2,4.397603E1,3.099861E1,0E0,2.1395468E2,8.426392E0,1.673645E1,0E0,1.4521484E0,0E0,1.3340112E2,3.4524548E1,1.3592911E-1,0E0,8.395481E-2,0E0,8.672681E1,4.947171E1,4.7743835E0,0E0,1.5587769E0,0E0,3.3709717E-1,0E0,0E0,0E0,0E0,0E0,0E0,0E0,0E0,0E0,0E0,0E0,0E0,0E0,0E0,0E0,0E0,0E0,0E0,0E0],"parents":[2147483647,0,0,1,1,2,2,3,3,4,4,5,5,6,6,7,7,8,8,11,11,12,12,13,13,15,15,16,16,17,17,19,19,20,20,21,21,23,23,25,25,26,26,27,27,29,29,31,31,32,32,33,33,35,35,37,37],"right_children":[2,4,6,8,10,12,14,16,18,-1,-1,20,22,24,-1,26,28,30,-1,32,34,36,-1,38,-1,40,42,44,-1,46,-1,48,50,52,-1,54,-1,56,-1,-1,-1,-1,-1,-1,-1,-1,-1,-1,-1,-1,-1,-1,-1,-1,-1,-1,-1],"split_conditions":[5E-1,5E-1,5E-1,5E-1,5E-1,5E-1,5E-1,5E-1,5E-1,4.687339E-3,2.9768918E-3,5E-1,5E-1,5E-1,-1.5906487E-3,5E-1,5E-1,5E-1,6.6941166E-3,5E-1,5E-1,5E-1,-1.0001207E-3,5E-1,-8.372064E-3,5E-1,5E-1,5E-1,1.3111647E-2,5E-1,7.2558955E-3,5E-1,5E-1,5E-1,7.6374006E-3,5E-1,1.5835857E-2,5E-1,-1.4175115E-2,-5.492571E-3,3.657986E-3,-8.5914135E-4,8.186682E-3,1.1140164E-3,1.3372186E-3,-9.589023E-4,-6.739208E-4,1.6241948E-3,-1.7688514E-3,4.8777293E-3,1.0557347E-2,5.357155E-3,7.617974E-3,1.1196339E-2,9.115108E-3,-1.11618955E-2,-1.3264316E-2],"split_indices":[5,1,9,4,8,0,1,2,8,0,0,1,6,2,0,7,0,0,0,4,3,2,0,7,0,0,0,8,0,3,0,6,8,8,0,1,0,4,0,0,0,0,0,0,0,0,0,0,0,0,0,0,0,0,0,0,0],"split_type":[0,0,0,0,0,0,0,0,0,0,0,0,0,0,0,0,0,0,0,0,0,0,0,0,0,0,0,0,0,0,0,0,0,0,0,0,0,0,0,0,0,0,0,0,0,0,0,0,0,0,0,0,0,0,0,0,0],"sum_hessian":[2.7788012E4,1.3978478E4,1.3809533E4,1.2494356E4,1.4841212E3,1.3249069E4,5.604642E2,1.0925759E4,1.568598E3,1.0472605E3,4.368607E2,1.2575067E4,6.740021E2,4.9051456E2,6.994961E1,9.492498E3,1.4332601E3,9.967557E2,5.718424E2,1.1207195E4,1.3678717E3,6.436792E2,3.0322887E1,4.4183823E2,4.867631E1,8.105456E3,1.387042E3,1.4026367E3,3.0623434E1,9.462835E2,5.0472122E1,9.915189E3,1.2920056E3,5.1200226E2,8.5586945E2,5.572848E2,8.639439E1,4.0253543E2,3.93028E1,7.9435273E3,1.6192891E2,1.3444796E3,4.256239E1,9.668172E2,4.358195E2,1.25495224E2,8.207883E2,9.09467E3,8.205197E2,1.1138413E3,1.7816437E2,3.7625085E2,1.3575139E2,4.8512646E2,7.2158356E1,3.623699E2,4.0165535E1],"tree_param":{"num_deleted":"0","num_feature":"10","num_nodes":"57","size_leaf_vector":"0"}},{"base_weights":[1.8454642E-5,-2.2672135E-1,2.295312E-1,-3.029124E-1,4.1446853E-1,2.8184634E-1,-1.0059313E0,-3.784125E-1,2.2286467E-1,4.64091E-1,2.9472926E-1,2.3819496E-1,1.0950834E0,-1.1264144E0,-1.574979E-1,-4.572095E-1,1.4337356E-1,-2.9924281E-2,6.628452E-1,1.8239869E-1,6.9495314E-1,1.1514332E0,-9.9044085E-2,-1.157216E0,-8.2922536E-1,-5.2568585E-1,-5.7005867E-2,1.17245235E-1,1.299311E0,-7.0557915E-2,7.186197E-1,1.3298413E-1,5.6127167E-1,5.911658E-1,7.5628406E-1,1.0839661E0,1.5694473E0,-1.1296297E0,-1.4047608E0,-5.4382956E-1,3.6218175E-1,-8.505574E-2,8.1087697E-1,1.1028915E-1,1.3238874E-1,-9.493943E-2,-6.671909E-2,1.6079743E-1,-1.7512053E-1,4.8294455E-1,1.0456892E0,5.304319E-1,7.5440496E-1,1.1090025E0,9.0280914E-1,-1.1055945E0,-1.3143693E0],"categories":[],"categories_nodes":[],"categories_segments":[],"categories_sizes":[],"default_left":[1,1,1,1,1,1,1,1,1,0,0,1,1,1,0,1,1,1,0,1,1,1,0,1,0,1,1,1,0,1,0,1,1,1,0,1,0,1,0,0,0,0,0,0,0,0,0,0,0,0,0,0,0,0,0,0,0],"id":8,"left_children":[1,3,5,7,9,11,13,15,17,-1,-1,19,21,23,-1,25,27,29,-1,31,33,35,-1,37,-1,39,41,43,-1,45,-1,47,49,51,-1,53,-1,55,-1,-1,-1,-1,-1,-1,-1,-1,-1,-1,-1,-1,-1,-1,-1,-1,-1,-1,-1],"loss_changes":[1.446061E3,6.8300543E2,8.9283167E2,4.9605896E2,8.686829E0,4.7007068E2,5.7191223E1,4.4928076E2,1.7458154E2,0E0,0E0,3.203653E2,4.551117E1,3.5374146E0,0E0,2.6010852E2,4.316536E1,3.0398125E1,0E0,2.0975812E2,8.264648E0,1.6470459E1,0E0,1.4356079E0,0E0,1.3077002E2,3.38591E1,1.3325691E-1,0E0,8.2327366E-2,0E0,8.500314E1,4.8548737E1,4.6851044E0,0E0,1.5297852E0,0E0,3.3776855E-1,0E0,0E0,0E0,0E0,0E0,0E0,0E0,0E0,0E0,0E0,0E0,0E0,0E0,0E0,0E0,0E0,0E0,0E0,0E0],"parents":[2147483647,0,0,1,1,2,2,3,3,4,4,5,5,6,6,7,7,8,8,11,11,12,12,13,13,15,15,16,16,17,17,19,19,20,20,21,21,23,23,25,25,26,26,27,27,29,29,31,31,32,32,33,33,35,35,37,37],"right_children":[2,4,6,8,10,12,14,16,18,-1,-1,20,22,24,-1,26,28,30,-1,32,34,36,-1,38,-1,40,42,44,-1,46,-1,48,50,52,-1,54,-1,56,-1,-1,-1,-1,-1,-1,-1,-1,-1,-1,-1,-1,-1,-1,-1,-1,-1,-1,-1],"split_conditions":[5E-1,5E-1,5E-1,5E-1,5E-1,5E-1,5E-1,5E-1,5E-1,4.64091E-3,2.9472925E-3,5E-1,5E-1,5E-1,-1.5749789E-3,5E-1,5E-1,5E-1,6.628452E-3,5E-1,5E-1,5E-1,-9.904408E-4,5E-1,-8.292253E-3,5E-1,5E-1,5E-1,1.299311E-2,5E-1,7.1861967E-3,5E-1,5E-1,5E-1,7.5628404E-3,5E-1,1.5694473E-2,5E-1,-1.4047608E-2,-5.4382957E-3,3.6218173E-3,-8.5055735E-4,8.10877E-3,1.1028915E-3,1.3238874E-3,-9.493943E-4,-6.6719094E-4,1.6079743E-3,-1.7512053E-3,4.8294454E-3,1.0456892E-2,5.3043193E-3,7.5440495E-3,1.1090024E-2,9.028091E-3,-1.10559445E-2,-1.3143693E-2],"split_indices":[5,1,9,4,8,0,1,2,8,0,0,1,6,2,0,7,0,0,0,4,3,2,0,7,0,0,0,8,0,3,0,6,8,8,0,1,0,4,0,0,0,0,0,0,0,0,0,0,0,0,0,0,0,0,0,0,0],"split_type":[0,0,0,0,0,0,0,0,0,0,0,0,0,0,0,0,0,0,0,0,0,0,0,0,0,0,0,0,0,0,0,0,0,0,0,0,0,0,0,0,0,0,0,0,0,0,0,0,0,0,0,0,0,0,0,0,0],"sum_hessian":[2.7785668E4,1.3977275E4,1.3808392E4,1.2493259E4,1.4840165E3,1.3248175E4,5.6021674E2,1.0924773E4,1.568486E3,1.0471709E3,4.368456E2,1.2574517E4,6.7365826E2,4.9026782E2,6.994892E1,9.491541E3,1.4332319E3,9.967433E2,5.717427E2,1.1206912E4,1.3676049E3,6.433355E2,3.0322773E1,4.4160477E2,4.8663048E1,8.104514E3,1.387027E3,1.4026289E3,3.060301E1,9.462815E2,5.0461796E1,9.915087E3,1.2918253E3,5.1192957E2,8.5567523E2,5.5702515E2,8.631039E1,4.0233258E2,3.9272175E1,7.9425938E3,1.6192047E2,1.3444757E3,4.2551304E1,9.668125E2,4.3581644E2,1.2549477E2,8.2078674E2,9.094577E3,8.205097E2,1.113738E3,1.7808719E2,3.7620883E2,1.3572075E2,4.8489008E2,7.213505E1,3.621945E2,4.013811E1],"tree_param":{"num_deleted":"0","num_feature":"10","num_nodes":"57","size_leaf_vector":"0"}},{"base_weights":[2.0343701E-5,-2.2447306E-1,2.2725843E-1,-2.9991037E-1,4.1036126E-1,2.790543E-1,-9.9645114E-1,-3.7466455E-1,2.206615E-1,4.5949847E-1,2.9179978E-1,2.3582725E-1,1.0848045E0,-1.1158742E0,-1.5594716E-1,-4.5268822E-1,1.4195387E-1,-2.9619943E-2,6.563564E-1,1.8058096E-1,6.8816894E-1,1.1406572E0,-9.808585E-2,-1.146409E0,-8.213463E-1,-5.2049726E-1,-5.64315E-2,1.1607531E-1,1.2876632E0,-6.985432E-2,7.117334E-1,1.3165554E-1,5.5575764E-1,5.8537215E-1,7.4892026E-1,1.073723E0,1.5556117E0,-1.1190252E0,-1.3922505E0,-5.3846306E-1,3.5860312E-1,-8.420637E-2,8.031839E-1,1.0918815E-1,1.3106884E-1,-9.3998015E-2,-6.605297E-2,1.5919118E-1,-1.733739E-1,4.7816882E-1,1.0357915E0,5.2520716E-1,7.47104E-1,1.0985348E0,8.9422435E-1,-1.0951627E0,-1.3025194E0],"categories":[],"categories_nodes":[],"categories_segments":[],"categories_sizes":[],"default_left":[1,1,1,1,1,1,1,1,1,0,0,1,1,1,0,1,1,1,0,1,1,1,0,1,0,1,1,1,0,1,0,1,1,1,0,1,0,1,0,0,0,0,0,0,0,0,0,0,0,0,0,0,0,0,0,0,0],"id":9,"left_children":[1,3,5,7,9,11,13,15,17,-1,-1,19,21,23,-1,25,27,29,-1,31,33,35,-1,37,-1,39,41,43,-1,45,-1,47,49,51,-1,53,-1,55,-1,-1,-1,-1,-1,-1,-1,-1,-1,-1,-1,-1,-1,-1,-1,-1,-1,-1,-1],"loss_changes":[1.4174114E3,6.6948114E2,8.754794E2,4.862483E2,8.516632E0,4.611809E2,5.6130676E1,4.4042102E2,1.7115256E2,0E0,0E0,3.14125E2,4.4659607E1,3.473999E0,0E0,2.5500452E2,4.2373596E1,2.980989E1,0E0,2.0564978E2,8.106689E0,1.621521E1,0E0,1.4199829E0,0E0,1.2819312E2,3.320736E1,1.306324E-1,0E0,8.073139E-2,0E0,8.33136E1,4.7648834E1,4.597946E0,0E0,1.501648E0,0E0,3.38562E-1,0E0,0E0,0E0,0E0,0E0,0E0,0E0,0E0,0E0,0E0,0E0,0E0,0E0,0E0,0E0,0E0,0E0,0E0,0E0],"parents":[2147483647,0,0,1,1,2,2,3,3,4,4,5,5,6,6,7,7,8,8,11,11,12,12,13,13,15,15,16,16,17,17,19,19,20,20,21,21,23,23,25,25,26,26,27,27,29,29,31,31,32,32,33,33,35,35,37,37],"right_children":[2,4,6,8,10,12,14,16,18,-1,-1,20,22,24,-1,26,28,30,-1,32,34,36,-1,38,-1,40,42,44,-1,46,-1,48,50,52,-1,54,-1,56,-1,-1,-1,-1,-1,-1,-1,-1,-1,-1,-1,-1,-1,-1,-1,-1,-1,-1,-1],"split_conditions":[5E-1,5E-1,5E-1,5E-1,5E-1,5E-1,5E-1,5E-1,5E-1,4.5949845E-3,2.9179978E-3,5E-1,5E-1,5E-1,-1.5594716E-3,5E-1,5E-1,5E-1,6.563564E-3,5E-1,5E-1,5E-1,-9.808585E-4,5E-1,-8.213462E-3,5E-1,5E-1,5E-1,1.2876632E-2,5E-1,7.117334E-3,5E-1,5E-1,5E-1,7.4892025E-3,5E-1,1.5556117E-2,5E-1,-1.3922505E-2,-5.3846305E-3,3.586031E-3,-8.420637E-4,8.031839E-3,1.0918814E-3,1.3106883E-3,-9.3998015E-4,-6.605297E-4,1.5919118E-3,-1.7337389E-3,4.781688E-3,1.03579145E-2,5.2520717E-3,7.47104E-3,1.0985348E-2,8.942244E-3,-1.0951627E-2,-1.3025194E-2],"split_indices":[5,1,9,4,8,0,1,2,8,0,0,1,6,2,0,7,0,0,0,4,3,2,0,7,0,0,0,8,0,3,0,6,8,8,0,1,0,4,0,0,0,0,0,0,0,0,0,0,0,0,0,0,0,0,0,0,0],"split_type":[0,0,0,0,0,0,0,0,0,0,0,0,0,0,0,0,0,0,0,0,0,0,0,0,0,0,0,0,0,0,0,0,0,0,0,0,0,0,0,0,0,0,0,0,0,0,0,0,0,0,0,0,0,0,0,0,0],"sum_hessian":[2.7783053E4,1.3975936E4,1.3807116E4,1.2492036E4,1.4838998E3,1.3247176E4,5.599404E2,1.0923675E4,1.5683611E3,1.0470709E3,4.3682877E2,1.2573901E4,6.7327454E2,4.8999225E2,6.994815E1,9.490475E3,1.4332006E3,9.967297E2,5.7163135E2,1.1206595E4,1.3673068E3,6.4295184E2,3.0322641E1,4.4134402E2,4.8648235E1,8.1034644E3,1.3870103E3,1.4026204E3,3.05802E1,9.462794E2,5.0450253E1,9.914971E3,1.2916239E3,5.1184845E2,8.554584E2,5.567353E2,8.62166E1,4.0210605E2,3.9237972E1,7.941553E3,1.6191106E2,1.3444713E3,4.2538918E1,9.6680725E2,4.3581305E2,1.2549426E2,8.2078516E2,9.094473E3,8.204985E2,1.1136229E3,1.78001E2,3.761619E2,1.3568654E2,4.8462625E2,7.2109024E1,3.6199857E2,4.010749E1],"tree_param":{"num_deleted":"0","num_feature":"10","num_nodes":"57","size_leaf_vector":"0"}},{"base_weights":[2.2510803E-5,-2.2224897E-1,2.2501059E-1,-2.9694074E-1,4.0629822E-1,2.7629235E-1,-9.8711E-1,-3.7095726E-1,2.1848203E-1,4.54956E-1,2.889009E-1,2.3348458E-1,1.0746849E0,-1.1054958E0,-1.5441121E-1,-4.4821647E-1,1.4054847E-1,-2.9318662E-2,6.499442E-1,1.7878222E-1,6.814663E-1,1.1300509E0,-9.7136885E-2,-1.1357714E0,-8.1356674E-1,-5.153663E-1,-5.5862557E-2,1.14917025E-1,1.2762142E0,-6.9157705E-2,7.0492953E-1,1.3034074E-1,5.503069E-1,5.7964474E-1,7.4164766E-1,1.0636332E0,1.542069E0,-1.1085838E0,-1.3799722E0,-5.331564E-1,3.5506174E-1,-8.3365075E-2,7.95587E-1,1.08097956E-1,1.2976238E-1,-9.3066074E-2,-6.539343E-2,1.576015E-1,-1.7164452E-1,4.734457E-1,1.0260378E0,5.200407E-1,7.398923E-1,1.0882262E0,8.857532E-1,-1.0848892E0,-1.2908753E0],"categories":[],"categories_nodes":[],"categories_segments":[],"categories_sizes":[],"default_left":[1,1,1,1,1,1,1,1,1,0,0,1,1,1,0,1,1,1,0,1,1,1,0,1,0,1,1,1,0,1,0,1,1,1,0,1,0,1,0,0,0,0,0,0,0,0,0,0,0,0,0,0,0,0,0,0,0],"id":10,"left_children":[1,3,5,7,9,11,13,15,17,-1,-1,19,21,23,-1,25,27,29,-1,31,33,35,-1,37,-1,39,41,43,-1,45,-1,47,49,51,-1,53,-1,55,-1,-1,-1,-1,-1,-1,-1,-1,-1,-1,-1,-1,-1,-1,-1,-1,-1,-1,-1],"loss_changes":[1.3893428E3,6.562309E2,8.584938E2,4.7663623E2,8.350037E0,4.524997E2,5.509668E1,4.3174243E2,1.677951E2,0E0,0E0,3.0801782E2,4.3828735E1,3.4128418E0,0E0,2.5000696E2,4.160012E1,2.9233643E1,0E0,2.0162735E2,7.952759E0,1.5970154E1,0E0,1.4050903E0,0E0,1.256687E2,3.256894E1,1.280613E-1,0E0,7.916641E-2,0E0,8.1657745E1,4.677127E1,4.512802E0,0E0,1.4746094E0,0E0,3.395996E-1,0E0,0E0,0E0,0E0,0E0,0E0,0E0,0E0,0E0,0E0,0E0,0E0,0E0,0E0,0E0,0E0,0E0,0E0,0E0],"parents":[2147483647,0,0,1,1,2,2,3,3,4,4,5,5,6,6,7,7,8,8,11,11,12,12,13,13,15,15,16,16,17,17,19,19,20,20,21,21,23,23,25,25,26,26,27,27,29,29,31,31,32,32,33,33,35,35,37,37],"right_children":[2,4,6,8,10,12,14,16,18,-1,-1,20,22,24,-1,26,28,30,-1,32,34,36,-1,38,-1,40,42,44,-1,46,-1,48,50,52,-1,54,-1,56,-1,-1,-1,-1,-1,-1,-1,-1,-1,-1,-1,-1,-1,-1,-1,-1,-1,-1,-1],"split_conditions":[5E-1,5E-1,5E-1,5E-1,5E-1,5E-1,5E-1,5E-1,5E-1,4.5495597E-3,2.889009E-3,5E-1,5E-1,5E-1,-1.5441121E-3,5E-1,5E-1,5E-1,6.499442E-3,5E-1,5E-1,5E-1,-9.713688E-4,5E-1,-8.135667E-3,5E-1,5E-1,5E-1,1.2762142E-2,5E-1,7.049295E-3,5E-1,5E-1,5E-1,7.4164765E-3,5E-1,1.5420689E-2,5E-1,-1.3799722E-2,-5.3315638E-3,3.5506173E-3,-8.3365076E-4,7.95587E-3,1.0809795E-3,1.2976237E-3,-9.306607E-4,-6.539343E-4,1.576015E-3,-1.7164452E-3,4.734457E-3,1.0260378E-2,5.200407E-3,7.398923E-3,1.0882262E-2,8.857532E-3,-1.0848892E-2,-1.2908753E-2],"split_indices":[5,1,9,4,8,0,1,2,8,0,0,1,6,2,0,7,0,0,0,4,3,2,0,7,0,0,0,8,0,3,0,6,8,8,0,1,0,4,0,0,0,0,0,0,0,0,0,0,0,0,0,0,0,0,0,0,0],"split_type":[0,0,0,0,0,0,0,0,0,0,0,0,0,0,0,0,0,0,0,0,0,0,0,0,0,0,0,0,0,0,0,0,0,0,0,0,0,0,0,0,0,0,0,0,0,0,0,0,0,0,0,0,0,0,0,0,0],"sum_hessian":[2.7780172E4,1.3974459E4,1.3805714E4,1.24906875E4,1.4837711E3,1.3246077E4,5.5963617E2,1.0922464E4,1.5682234E3,1.0469608E3,4.3681024E2,1.2573226E4,6.728519E2,4.8968887E2,6.994731E1,9.489298E3,1.4331659E3,9.967146E2,5.715088E2,1.1206247E4,1.3669788E3,6.425294E2,3.0322493E1,4.4105695E2,4.8631924E1,8.1023066E3,1.3869918E3,1.4026108E3,3.0555077E1,9.4627704E2,5.0437546E1,9.914845E3,1.2914023E3,5.117591E2,8.5521967E2,5.564161E2,8.611333E1,4.0185666E2,3.9200302E1,7.940406E3,1.619007E2,1.3444666E3,4.252528E1,9.668015E2,4.3580933E2,1.25493706E2,8.207833E2,9.094358E3,8.204862E2,1.1134961E3,1.7790614E2,3.7611023E2,1.3564886E2,4.8433572E2,7.208037E1,3.617829E2,4.007377E1],"tree_param":{"num_deleted":"0","num_feature":"10","num_nodes":"57","size_leaf_vector":"0"}},{"base_weights":[2.4586867E-5,-2.2004901E-1,2.2278695E-1,-2.940034E-1,4.0227845E-1,2.7355975E-1,-9.779043E-1,-3.672903E-1,2.1632591E-1,4.5046264E-1,2.860318E-1,2.3116626E-1,1.0647197E0,-1.0952753E0,-1.5289089E-1,-4.4379383E-1,1.3915727E-1,-2.9020304E-2,6.43607E-1,1.7700182E-1,6.7484343E-1,1.1196094E0,-9.6197106E-2,-1.1252984E0,-8.05885E-1,-5.1029253E-1,-5.52995E-2,1.13770336E-1,1.264959E0,-6.846785E-2,6.982061E-1,1.2903915E-1,5.4491794E-1,5.739825E-1,7.344639E-1,1.0536923E0,1.5288087E0,-1.098301E0,-1.3679188E0,-5.279088E-1,3.515576E-1,-8.25323E-2,7.8808427E-1,1.0701868E-1,1.28469E-1,-9.2143156E-2,-6.47403E-2,1.5602787E-1,-1.6993333E-1,4.687739E-1,1.016425E0,5.149314E-1,7.3276883E-1,1.0780723E0,8.773934E-1,-1.0747695E0,-1.2794306E0],"categories":[],"categories_nodes":[],"categories_segments":[],"categories_sizes":[],"default_left":[1,1,1,1,1,1,1,1,1,0,0,1,1,1,0,1,1,1,0,1,1,1,0,1,0,1,1,1,0,1,0,1,1,1,0,1,0,1,0,0,0,0,0,0,0,0,0,0,0,0,0,0,0,0,0,0,0],"id":11,"left_children":[1,3,5,7,9,11,13,15,17,-1,-1,19,21,23,-1,25,27,29,-1,31,33,35,-1,37,-1,39,41,43,-1,45,-1,47,49,51,-1,53,-1,55,-1,-1,-1,-1,-1,-1,-1,-1,-1,-1,-1,-1,-1,-1,-1,-1,-1,-1,-1],"loss_changes":[1.3618427E3,6.432488E2,8.418656E2,4.6721924E2,8.186935E0,4.4402112E2,5.408838E1,4.232406E2,1.645075E2,0E0,0E0,3.0204065E2,4.3017822E1,3.3534546E0,0E0,2.4511438E2,4.0844406E1,2.8669071E1,0E0,1.9768872E2,7.802368E0,1.5734741E1,0E0,1.3911133E0,0E0,1.2319556E2,3.194357E1,1.255455E-1,0E0,7.763243E-2,0E0,8.003522E1,4.5915283E1,4.429657E0,0E0,1.4484863E0,0E0,3.4085083E-1,0E0,0E0,0E0,0E0,0E0,0E0,0E0,0E0,0E0,0E0,0E0,0E0,0E0,0E0,0E0,0E0,0E0,0E0,0E0],"parents":[2147483647,0,0,1,1,2,2,3,3,4,4,5,5,6,6,7,7,8,8,11,11,12,12,13,13,15,15,16,16,17,17,19,19,20,20,21,21,23,23,25,25,26,26,27,27,29,29,31,31,32,32,33,33,35,35,37,37],"right_children":[2,4,6,8,10,12,14,16,18,-1,-1,20,22,24,-1,26,28,30,-1,32,34,36,-1,38,-1,40,42,44,-1,46,-1,48,50,52,-1,54,-1,56,-1,-1,-1,-1,-1,-1,-1,-1,-1,-1,-1,-1,-1,-1,-1,-1,-1,-1,-1],"split_conditions":[5E-1,5E-1,5E-1,5E-1,5E-1,5E-1,5E-1,5E-1,5E-1,4.504626E-3,2.8603182E-3,5E-1,5E-1,5E-1,-1.5289088E-3,5E-1,5E-1,5E-1,6.43607E-3,5E-1,5E-1,5E-1,-9.6197106E-4,5E-1,-8.05885E-3,5E-1,5E-1,5E-1,1.2649589E-2,5E-1,6.982061E-3,5E-1,5E-1,5E-1,7.3446385E-3,5E-1,1.5288087E-2,5E-1,-1.3679188E-2,-5.279088E-3,3.515576E-3,-8.25323E-4,7.880842E-3,1.0701867E-3,1.28469E-3,-9.214315E-4,-6.47403E-4,1.5602787E-3,-1.6993333E-3,4.687739E-3,1.016425E-2,5.1493137E-3,7.3276884E-3,1.0780723E-2,8.773934E-3,-1.0747694E-2,-1.2794306E-2],"split_indices":[5,1,9,4,8,0,1,2,8,0,0,1,6,2,0,7,0,0,0,4,3,2,0,7,0,0,0,8,0,3,0,6,8,8,0,1,0,4,0,0,0,0,0,0,0,0,0,0,0,0,0,0,0,0,0,0,0],"split_type":[0,0,0,0,0,0,0,0,0,0,0,0,0,0,0,0,0,0,0,0,0,0,0,0,0,0,0,0,0,0,0,0,0,0,0,0,0,0,0,0,0,0,0,0,0,0,0,0,0,0,0,0,0,0,0,0,0],"sum_hessian":[2.7777037E4,1.3972852E4,1.3804185E4,1.2489221E4,1.483631E3,1.324488E4,5.5930493E2,1.0921146E4,1.5680736E3,1.046841E3,4.3679007E2,1.2572488E4,6.723918E2,4.8935852E2,6.994639E1,9.488019E3,1.4331283E3,9.966983E2,5.713753E2,1.1205866E4,1.3666215E3,6.4206946E2,3.0322336E1,4.407444E2,4.8614162E1,8.1010464E3,1.3869719E3,1.4026006E3,3.0527714E1,9.462746E2,5.0423706E1,9.914706E3,1.2911608E3,5.1166183E2,8.549597E2,5.560686E2,8.600088E1,4.015851E2,3.9159267E1,7.939157E3,1.6188939E2,1.3444614E3,4.2510426E1,9.6679535E2,4.3580527E2,1.2549312E2,8.207815E2,9.094233E3,8.2047284E2,1.113358E3,1.7780283E2,3.76054E2,1.3560783E2,4.840194E2,7.2049164E1,3.6154807E2,4.003704E1],"tree_param":{"num_deleted":"0","num_feature":"10","num_nodes":"57","size_leaf_vector":"0"}},{"base_weights":[2.6485604E-5,-2.1787307E-1,2.2058724E-1,-2.910981E-1,3.9830124E-1,2.708561E-1,-9.6883035E-1,-3.6366335E-1,2.1419239E-1,4.460175E-1,2.83192E-1,2.2887199E-1,1.0549049E0,-1.0852076E0,-1.5138568E-1,-4.3941987E-1,1.3778026E-1,-2.872535E-2,6.3734317E-1,1.752396E-1,6.6829884E-1,1.1093282E0,-9.526616E-2,-1.1149851E0,-7.982989E-1,-5.0527525E-1,-5.474217E-2,1.1263527E-1,1.2538913E0,-6.7785256E-2,6.915617E-1,1.2775065E-1,5.3958964E-1,5.6838393E-1,7.2736746E-1,1.0438968E0,1.5158209E0,-1.0881722E0,-1.3560829E0,-5.2271974E-1,3.480896E-1,-8.1707865E-2,7.8067356E-1,1.0595056E-1,1.2718827E-1,-9.122928E-2,-6.409414E-2,1.5447001E-1,-1.6823871E-1,4.6415266E-1,1.0069485E0,5.098782E-1,7.2573113E-1,1.0680693E0,8.6914235E-1,-1.064799E0,-1.2681792E0],"categories":[],"categories_nodes":[],"categories_segments":[],"categories_sizes":[],"default_left":[1,1,1,1,1,1,1,1,1,0,0,1,1,1,0,1,1,1,0,1,1,1,0,1,0,1,1,1,0,1,0,1,1,1,0,1,0,1,0,0,0,0,0,0,0,0,0,0,0,0,0,0,0,0,0,0,0],"id":12,"left_children":[1,3,5,7,9,11,13,15,17,-1,-1,19,21,23,-1,25,27,29,-1,31,33,35,-1,37,-1,39,41,43,-1,45,-1,47,49,51,-1,53,-1,55,-1,-1,-1,-1,-1,-1,-1,-1,-1,-1,-1,-1,-1,-1,-1,-1,-1,-1,-1],"loss_changes":[1.3349004E3,6.3052893E2,8.255855E2,4.5799304E2,8.027298E0,4.3573877E2,5.3104614E1,4.1491284E2,1.6128809E2,0E0,0E0,2.9619006E2,4.2226196E1,3.2962036E0,0E0,2.4032349E2,4.010587E1,2.8115961E1,0E0,1.9383185E2,7.6557007E0,1.5508484E1,0E0,1.3778076E0,0E0,1.2077295E2,3.1330935E1,1.23067856E-1,0E0,7.612467E-2,0E0,7.844461E1,4.5080048E1,4.348419E0,0E0,1.4232788E0,0E0,3.4225464E-1,0E0,0E0,0E0,0E0,0E0,0E0,0E0,0E0,0E0,0E0,0E0,0E0,0E0,0E0,0E0,0E0,0E0,0E0,0E0],"parents":[2147483647,0,0,1,1,2,2,3,3,4,4,5,5,6,6,7,7,8,8,11,11,12,12,13,13,15,15,16,16,17,17,19,19,20,20,21,21,23,23,25,25,26,26,27,27,29,29,31,31,32,32,33,33,35,35,37,37],"right_children":[2,4,6,8,10,12,14,16,18,-1,-1,20,22,24,-1,26,28,30,-1,32,34,36,-1,38,-1,40,42,44,-1,46,-1,48,50,52,-1,54,-1,56,-1,-1,-1,-1,-1,-1,-1,-1,-1,-1,-1,-1,-1,-1,-1,-1,-1,-1,-1],"split_conditions":[5E-1,5E-1,5E-1,5E-1,5E-1,5E-1,5E-1,5E-1,5E-1,4.460175E-3,2.83192E-3,5E-1,5E-1,5E-1,-1.5138568E-3,5E-1,5E-1,5E-1,6.3734315E-3,5E-1,5E-1,5E-1,-9.526616E-4,5E-1,-7.982989E-3,5E-1,5E-1,5E-1,1.2538914E-2,5E-1,6.915617E-3,5E-1,5E-1,5E-1,7.2736745E-3,5E-1,1.5158208E-2,5E-1,-1.3560829E-2,-5.2271974E-3,3.480896E-3,-8.1707863E-4,7.8067356E-3,1.0595055E-3,1.2718827E-3,-9.122928E-4,-6.409414E-4,1.5447001E-3,-1.6823871E-3,4.6415264E-3,1.0069485E-2,5.098782E-3,7.257311E-3,1.0680693E-2,8.691424E-3,-1.0647989E-2,-1.2681792E-2],"split_indices":[5,1,9,4,8,0,1,2,8,0,0,1,6,2,0,7,0,0,0,4,3,2,0,7,0,0,0,8,0,3,0,6,8,8,0,1,0,4,0,0,0,0,0,0,0,0,0,0,0,0,0,0,0,0,0,0,0],"split_type":[0,0,0,0,0,0,0,0,0,0,0,0,0,0,0,0,0,0,0,0,0,0,0,0,0,0,0,0,0,0,0,0,0,0,0,0,0,0,0,0,0,0,0,0,0,0,0,0,0,0,0,0,0,0,0,0,0],"sum_hessian":[2.7773652E4,1.3971116E4,1.3802535E4,1.2487637E4,1.48348E3,1.3243588E4,5.5894745E2,1.0919725E4,1.5679119E3,1.0467117E3,4.367683E2,1.2571692E4,6.718953E2,4.8900208E2,6.994539E1,9.486638E3,1.4330876E3,9.9668054E2,5.7123126E2,1.1205456E4,1.366236E3,6.415732E2,3.0322166E1,4.404071E2,4.8594986E1,8.099687E3,1.3869503E3,1.4025895E3,3.0498175E1,9.462718E2,5.040877E1,9.914556E3,1.2909004E3,5.1155682E2,8.546792E2,5.556936E2,8.5879524E1,4.012921E2,3.911499E1,7.9378096E3,1.6187721E2,1.3444559E3,4.2494392E1,9.667886E2,4.3580087E2,1.2549246E2,8.2077936E2,9.094098E3,8.204584E2,1.113209E3,1.7769136E2,3.7599326E2,1.3556357E2,4.8367813E2,7.201548E1,3.612947E2,3.9997402E1],"tree_param":{"num_deleted":"0","num_feature":"10","num_nodes":"57","size_leaf_vector":"0"}},{"base_weights":[2.842461E-5,-2.157204E-1,2.1841107E-1,-2.8822392E-1,3.9436644E-1,2.681811E-1,-9.5988494E-1,-3.6007538E-1,2.1208182E-1,4.4162038E-1,2.8038147E-1,2.2660151E-1,1.0452362E0,-1.0752891E0,-1.4989555E-1,-4.350933E-1,1.3641703E-1,-2.843305E-2,6.3115185E-1,1.7349537E-1,6.6183096E-1,1.0992026E0,-9.434435E-2,-1.1048276E0,-7.908057E-1,-5.0031304E-1,-5.419077E-2,1.1151145E-1,1.2430054E0,-6.7109086E-2,6.849949E-1,1.2647517E-1,5.3432125E-1,5.6284827E-1,7.203562E-1,1.0342424E0,1.5030966E0,-1.0781938E0,-1.3444579E0,-5.175877E-1,3.446579E-1,-8.089197E-2,7.733532E-1,1.0489278E-1,1.2592071E-1,-9.032481E-2,-6.345395E-2,1.529279E-1,-1.665615E-1,4.5958146E-1,9.976048E-1,5.0488037E-1,7.187777E-1,1.0582126E0,8.6099744E-1,-1.0549746E0,-1.2571152E0],"categories":[],"categories_nodes":[],"categories_segments":[],"categories_sizes":[],"default_left":[1,1,1,1,1,1,1,1,1,0,0,1,1,1,0,1,1,1,0,1,1,1,0,1,0,1,1,1,0,1,0,1,1,1,0,1,0,1,0,0,0,0,0,0,0,0,0,0,0,0,0,0,0,0,0,0,0],"id":13,"left_children":[1,3,5,7,9,11,13,15,17,-1,-1,19,21,23,-1,25,27,29,-1,31,33,35,-1,37,-1,39,41,43,-1,45,-1,47,49,51,-1,53,-1,55,-1,-1,-1,-1,-1,-1,-1,-1,-1,-1,-1,-1,-1,-1,-1,-1,-1,-1,-1],"loss_changes":[1.3085013E3,6.1806635E2,8.0964557E2,4.4895325E2,7.8710785E0,4.2764606E2,5.2144897E1,4.0675415E2,1.5813516E2,0E0,0E0,2.904626E2,4.145349E1,3.2406616E0,0E0,2.3563147E2,3.9383976E1,2.7574015E1,0E0,1.9005493E2,7.512512E0,1.529071E1,0E0,1.3652954E0,0E0,1.18399414E2,3.0730768E1,1.20651245E-1,0E0,7.465029E-2,0E0,7.6885864E1,4.42648E1,4.269058E0,0E0,1.3989868E0,0E0,3.4378052E-1,0E0,0E0,0E0,0E0,0E0,0E0,0E0,0E0,0E0,0E0,0E0,0E0,0E0,0E0,0E0,0E0,0E0,0E0,0E0],"parents":[2147483647,0,0,1,1,2,2,3,3,4,4,5,5,6,6,7,7,8,8,11,11,12,12,13,13,15,15,16,16,17,17,19,19,20,20,21,21,23,23,25,25,26,26,27,27,29,29,31,31,32,32,33,33,35,35,37,37],"right_children":[2,4,6,8,10,12,14,16,18,-1,-1,20,22,24,-1,26,28,30,-1,32,34,36,-1,38,-1,40,42,44,-1,46,-1,48,50,52,-1,54,-1,56,-1,-1,-1,-1,-1,-1,-1,-1,-1,-1,-1,-1,-1,-1,-1,-1,-1,-1,-1],"split_conditions":[5E-1,5E-1,5E-1,5E-1,5E-1,5E-1,5E-1,5E-1,5E-1,4.4162036E-3,2.8038146E-3,5E-1,5E-1,5E-1,-1.4989554E-3,5E-1,5E-1,5E-1,6.3115186E-3,5E-1,5E-1,5E-1,-9.4344345E-4,5E-1,-7.9080565E-3,5E-1,5E-1,5E-1,1.2430054E-2,5E-1,6.849949E-3,5E-1,5E-1,5E-1,7.203562E-3,5E-1,1.5030965E-2,5E-1,-1.3444578E-2,-5.175877E-3,3.446579E-3,-8.0891966E-4,7.733532E-3,1.0489278E-3,1.2592071E-3,-9.032481E-4,-6.3453946E-4,1.529279E-3,-1.665615E-3,4.5958147E-3,9.976048E-3,5.0488035E-3,7.187777E-3,1.0582126E-2,8.609974E-3,-1.05497455E-2,-1.2571152E-2],"split_indices":[5,1,9,4,8,0,1,2,8,0,0,1,6,2,0,7,0,0,0,4,3,2,0,7,0,0,0,8,0,3,0,6,8,8,0,1,0,4,0,0,0,0,0,0,0,0,0,0,0,0,0,0,0,0,0,0,0],"split_type":[0,0,0,0,0,0,0,0,0,0,0,0,0,0,0,0,0,0,0,0,0,0,0,0,0,0,0,0,0,0,0,0,0,0,0,0,0,0,0,0,0,0,0,0,0,0,0,0,0,0,0,0,0,0,0,0,0],"sum_hessian":[2.777003E4,1.396926E4,1.380077E4,1.2485941E4,1.4833181E3,1.3242205E4,5.5856464E2,1.0918202E4,1.5677388E3,1.0465731E3,4.3674496E2,1.2570842E4,6.7136365E2,4.8862033E2,6.994431E1,9.485158E3,1.4330441E3,9.966616E2,5.710771E2,1.1205019E4,1.3658232E3,6.410416E2,3.0321985E1,4.400459E2,4.857445E1,8.0982314E3,1.386927E3,1.4025775E3,3.0466534E1,9.4626886E2,5.039277E1,9.914396E3,1.2906215E3,5.1144443E2,8.5437885E2,5.5529205E2,8.574959E1,4.0097833E2,3.906756E1,7.936367E3,1.6186417E2,1.3444498E3,4.2477222E1,9.667813E2,4.357962E2,1.2549177E2,8.207771E2,9.093954E3,8.2044293E2,1.1130496E3,1.7757198E2,3.7592828E2,1.3551616E2,4.8331265E2,7.1979416E1,3.6102338E2,3.9954937E1],"tree_param":{"num_deleted":"0","num_feature":"10","num_nodes":"57","size_leaf_vector":"0"}},{"base_weights":[3.029529E-5,-2.1359082E-1,2.1625812E-1,-2.8538063E-1,3.9047325E-1,2.655342E-1,-9.510643E-1,-3.5652602E-1,2.0999342E-1,4.372703E-1,2.7760002E-1,2.2435448E-1,1.0357094E0,-1.0655153E0,-1.4842021E-1,-4.3081367E-1,1.350677E-1,-2.8143995E-2,6.2503165E-1,1.7176884E-1,6.5543866E-1,1.0892282E0,-9.3431674E-2,-1.0948209E0,-7.834041E-1,-4.9540535E-1,-5.3644754E-2,1.1039903E-1,1.232296E0,-6.643991E-2,6.785038E-1,1.2521243E-1,5.291117E-1,5.5737454E-1,7.1342903E-1,1.0247253E0,1.4906265E0,-1.0683608E0,-1.3330365E0,-5.125121E-1,3.412618E-1,-8.0084E-2,7.661212E-1,1.03845805E-1,1.2466589E-1,-8.942927E-2,-6.282045E-2,1.5140124E-1,-1.6490142E-1,4.5505947E-1,9.883912E-1,4.9993727E-1,7.1190697E-1,1.0484982E0,8.529565E-1,-1.0452912E0,-1.246233E0],"categories":[],"categories_nodes":[],"categories_segments":[],"categories_sizes":[],"default_left":[1,1,1,1,1,1,1,1,1,0,0,1,1,1,0,1,1,1,0,1,1,1,0,1,0,1,1,1,0,1,0,1,1,1,0,1,0,1,0,0,0,0,0,0,0,0,0,0,0,0,0,0,0,0,0,0,0],"id":14,"left_children":[1,3,5,7,9,11,13,15,17,-1,-1,19,21,23,-1,25,27,29,-1,31,33,35,-1,37,-1,39,41,43,-1,45,-1,47,49,51,-1,53,-1,55,-1,-1,-1,-1,-1,-1,-1,-1,-1,-1,-1,-1,-1,-1,-1,-1,-1,-1,-1],"loss_changes":[1.282635E3,6.058551E2,7.9403705E2,4.400959E2,7.7180634E0,4.197373E2,5.1208008E1,3.987611E2,1.5504745E2,0E0,0E0,2.8485577E2,4.069867E1,3.1867676E0,0E0,2.3103662E2,3.8678215E1,2.704298E1,0E0,1.8635599E2,7.3726807E0,1.5081177E1,0E0,1.3533936E0,0E0,1.1607422E2,3.014275E1,1.182785E-1,0E0,7.320356E-2,0E0,7.535823E1,4.3469025E1,4.191452E0,0E0,1.3755493E0,0E0,3.454895E-1,0E0,0E0,0E0,0E0,0E0,0E0,0E0,0E0,0E0,0E0,0E0,0E0,0E0,0E0,0E0,0E0,0E0,0E0,0E0],"parents":[2147483647,0,0,1,1,2,2,3,3,4,4,5,5,6,6,7,7,8,8,11,11,12,12,13,13,15,15,16,16,17,17,19,19,20,20,21,21,23,23,25,25,26,26,27,27,29,29,31,31,32,32,33,33,35,35,37,37],"right_children":[2,4,6,8,10,12,14,16,18,-1,-1,20,22,24,-1,26,28,30,-1,32,34,36,-1,38,-1,40,42,44,-1,46,-1,48,50,52,-1,54,-1,56,-1,-1,-1,-1,-1,-1,-1,-1,-1,-1,-1,-1,-1,-1,-1,-1,-1,-1,-1],"split_conditions":[5E-1,5E-1,5E-1,5E-1,5E-1,5E-1,5E-1,5E-1,5E-1,4.372703E-3,2.7760002E-3,5E-1,5E-1,5E-1,-1.4842021E-3,5E-1,5E-1,5E-1,6.2503163E-3,5E-1,5E-1,5E-1,-9.343167E-4,5E-1,-7.834041E-3,5E-1,5E-1,5E-1,1.23229595E-2,5E-1,6.785038E-3,5E-1,5E-1,5E-1,7.13429E-3,5E-1,1.4906264E-2,5E-1,-1.33303655E-2,-5.1251207E-3,3.412618E-3,-8.0084003E-4,7.661212E-3,1.0384581E-3,1.2466589E-3,-8.9429267E-4,-6.282045E-4,1.5140123E-3,-1.6490142E-3,4.5505944E-3,9.883912E-3,4.9993726E-3,7.1190693E-3,1.0484981E-2,8.529564E-3,-1.0452911E-2,-1.246233E-2],"split_indices":[5,1,9,4,8,0,1,2,8,0,0,1,6,2,0,7,0,0,0,4,3,2,0,7,0,0,0,8,0,3,0,6,8,8,0,1,0,4,0,0,0,0,0,0,0,0,0,0,0,0,0,0,0,0,0,0,0],"split_type":[0,0,0,0,0,0,0,0,0,0,0,0,0,0,0,0,0,0,0,0,0,0,0,0,0,0,0,0,0,0,0,0,0,0,0,0,0,0,0,0,0,0,0,0,0,0,0,0,0,0,0,0,0,0,0,0,0],"sum_hessian":[2.7766174E4,1.3967284E4,1.379889E4,1.2484138E4,1.4831459E3,1.3240732E4,5.5815735E2,1.0916584E4,1.5675546E3,1.0464258E3,4.3672015E2,1.2569935E4,6.70798E2,4.8821417E2,6.9943184E1,9.483586E3,1.4329977E3,9.966415E2,5.70913E2,1.1204551E4,1.3653842E3,6.404762E2,3.0321785E1,4.396616E2,4.8552597E1,8.0966836E3,1.3869025E3,1.4025648E3,3.0432854E1,9.4626575E2,5.0375744E1,9.914226E3,1.2903247E3,5.1132483E2,8.5405927E2,5.5486487E2,8.561132E1,4.006445E2,3.9017086E1,7.934833E3,1.6185028E2,1.3444435E3,4.2458946E1,9.667736E2,4.357912E2,1.2549103E2,8.207747E2,9.0938E3,8.2042645E2,1.1128798E3,1.7744496E2,3.7585913E2,1.3546571E2,4.8292383E2,7.194103E1,3.6073474E2,3.9909748E1],"tree_param":{"num_deleted":"0","num_feature":"10","num_nodes":"57","size_leaf_vector":"0"}},{"base_weights":[3.2290434E-5,-2.1148385E-1,2.1412827E-1,-2.8256756E-1,3.866209E-1,2.6291534E-1,-9.4236577E-1,-3.5301447E-1,2.0792702E-1,4.3296635E-1,2.7484685E-1,2.2213084E-1,1.0263209E0,-1.0558828E0,-1.4695942E-1,-4.2658E-1,1.3373186E-1,-2.7857767E-2,6.1898094E-1,1.7006013E-1,6.491202E-1,1.0794009E0,-9.252802E-2,-1.0849613E0,-7.7609247E-1,-4.9055097E-1,-5.3104267E-2,1.0929763E-1,1.2217574E0,-6.5777324E-2,6.7208815E-1,1.2396266E-1,5.2395993E-1,5.5196124E-1,7.0658404E-1,1.0153421E0,1.4784026E0,-1.0586702E0,-1.3218127E0,-5.0749165E-1,3.3790088E-1,-7.928411E-2,7.589758E-1,1.0280917E-1,1.2342359E-1,-8.854251E-2,-6.2193174E-2,1.498902E-1,-1.632578E-1,4.5058593E-1,9.793041E-1,4.9504745E-1,7.051171E-1,1.0389227E0,8.450167E-1,-1.0357462E0,-1.2355269E0],"categories":[],"categories_nodes":[],"categories_segments":[],"categories_sizes":[],"default_left":[1,1,1,1,1,1,1,1,1,0,0,1,1,1,0,1,1,1,0,1,1,1,0,1,0,1,1,1,0,1,0,1,1,1,0,1,0,1,0,0,0,0,0,0,0,0,0,0,0,0,0,0,0,0,0,0,0],"id":15,"left_children":[1,3,5,7,9,11,13,15,17,-1,-1,19,21,23,-1,25,27,29,-1,31,33,35,-1,37,-1,39,41,43,-1,45,-1,47,49,51,-1,53,-1,55,-1,-1,-1,-1,-1,-1,-1,-1,-1,-1,-1,-1,-1,-1,-1,-1,-1,-1,-1],"loss_changes":[1.2572903E3,5.938889E2,7.787527E2,4.3141693E2,7.5682526E0,4.1200653E2,5.0293488E1,3.909297E2,1.5202307E2,0E0,0E0,2.7936597E2,3.9961365E1,3.1346436E0,0E0,2.2653625E2,3.7988083E1,2.6522682E1,0E0,1.8273303E2,7.236084E0,1.4879395E1,0E0,1.342102E0,0E0,1.1379578E2,2.9566608E1,1.1595535E-1,0E0,7.178402E-2,0E0,7.386101E1,4.2691956E1,4.115631E0,0E0,1.3528442E0,0E0,3.4725952E-1,0E0,0E0,0E0,0E0,0E0,0E0,0E0,0E0,0E0,0E0,0E0,0E0,0E0,0E0,0E0,0E0,0E0,0E0,0E0],"parents":[2147483647,0,0,1,1,2,2,3,3,4,4,5,5,6,6,7,7,8,8,11,11,12,12,13,13,15,15,16,16,17,17,19,19,20,20,21,21,23,23,25,25,26,26,27,27,29,29,31,31,32,32,33,33,35,35,37,37],"right_children":[2,4,6,8,10,12,14,16,18,-1,-1,20,22,24,-1,26,28,30,-1,32,34,36,-1,38,-1,40,42,44,-1,46,-1,48,50,52,-1,54,-1,56,-1,-1,-1,-1,-1,-1,-1,-1,-1,-1,-1,-1,-1,-1,-1,-1,-1,-1,-1],"split_conditions":[5E-1,5E-1,5E-1,5E-1,5E-1,5E-1,5E-1,5E-1,5E-1,4.3296632E-3,2.7484684E-3,5E-1,5E-1,5E-1,-1.4695942E-3,5E-1,5E-1,5E-1,6.189809E-3,5E-1,5E-1,5E-1,-9.252802E-4,5E-1,-7.7609248E-3,5E-1,5E-1,5E-1,1.2217574E-2,5E-1,6.7208814E-3,5E-1,5E-1,5E-1,7.06584E-3,5E-1,1.4784026E-2,5E-1,-1.3218127E-2,-5.0749164E-3,3.3790087E-3,-7.928411E-4,7.589758E-3,1.0280916E-3,1.2342359E-3,-8.8542514E-4,-6.2193174E-4,1.498902E-3,-1.6325779E-3,4.505859E-3,9.79304E-3,4.9504745E-3,7.051171E-3,1.03892265E-2,8.450167E-3,-1.0357462E-2,-1.2355269E-2],"split_indices":[5,1,9,4,8,0,1,2,8,0,0,1,6,2,0,7,0,0,0,4,3,2,0,7,0,0,0,8,0,3,0,6,8,8,0,1,0,4,0,0,0,0,0,0,0,0,0,0,0,0,0,0,0,0,0,0,0],"split_type":[0,0,0,0,0,0,0,0,0,0,0,0,0,0,0,0,0,0,0,0,0,0,0,0,0,0,0,0,0,0,0,0,0,0,0,0,0,0,0,0,0,0,0,0,0,0,0,0,0,0,0,0,0,0,0,0,0],"sum_hessian":[2.7762094E4,1.3965192E4,1.3796902E4,1.24822295E4,1.4829636E3,1.3239176E4,5.577263E2,1.0914869E4,1.5673596E3,1.0462698E3,4.366939E2,1.2568977E4,6.701994E2,4.8778433E2,6.994198E1,9.481921E3,1.4329486E3,9.966202E2,5.707394E2,1.1204057E4,1.3649194E3,6.398778E2,3.0321579E1,4.3925488E2,4.852947E1,8.0950444E3,1.3868763E3,1.4025514E3,3.0397203E1,9.4626245E2,5.0357723E1,9.914046E3,1.2900107E3,5.1119827E2,8.537211E2,5.5441284E2,8.5465E1,4.0029123E2,3.8963657E1,7.933209E3,1.6183559E2,1.3444368E3,4.24396E1,9.667655E2,4.357859E2,1.2549024E2,8.207722E2,9.093637E3,8.2040906E2,1.1127002E3,1.7731056E2,3.7578592E2,1.3541234E2,4.8251242E2,7.1900406E1,3.604293E2,3.986192E1],"tree_param":{"num_deleted":"0","num_feature":"10","num_nodes":"57","size_leaf_vector":"0"}},{"base_weights":[3.406371E-5,-2.0939961E-1,2.1202092E-1,-2.7978483E-1,3.828092E-1,2.6032388E-1,-9.3378615E-1,-3.4954083E-1,2.0588252E-1,4.2870837E-1,2.7212185E-1,2.1993004E-1,1.017067E0,-1.0463877E0,-1.4551301E-1,-4.223924E-1,1.3240974E-1,-2.7574388E-2,6.1299914E-1,1.6836868E-1,6.4287454E-1,1.0697168E0,-9.16329E-2,-1.075245E0,-7.688682E-1,-4.8574993E-1,-5.2569315E-2,1.0820753E-1,1.2113855E0,-6.512122E-2,6.657451E-1,1.2272533E-1,5.1886517E-1,5.466084E-1,6.998194E-1,1.0060894E0,1.466416E0,-1.0491179E0,-1.3107805E0,-5.025264E-1,3.3457434E-1,-7.8492284E-2,7.5191534E-1,1.01783216E-1,1.2219389E-1,-8.766451E-2,-6.157204E-2,1.4839423E-1,-1.6163087E-1,4.461603E-1,9.7034013E-1,4.902113E-1,6.9840693E-1,1.0294821E0,8.3717614E-1,-1.0263358E0,-1.224992E0],"categories":[],"categories_nodes":[],"categories_segments":[],"categories_sizes":[],"default_left":[1,1,1,1,1,1,1,1,1,0,0,1,1,1,0,1,1,1,0,1,1,1,0,1,0,1,1,1,0,1,0,1,1,1,0,1,0,1,0,0,0,0,0,0,0,0,0,0,0,0,0,0,0,0,0,0,0],"id":16,"left_children":[1,3,5,7,9,11,13,15,17,-1,-1,19,21,23,-1,25,27,29,-1,31,33,35,-1,37,-1,39,41,43,-1,45,-1,47,49,51,-1,53,-1,55,-1,-1,-1,-1,-1,-1,-1,-1,-1,-1,-1,-1,-1,-1,-1,-1,-1,-1,-1],"loss_changes":[1.2324569E3,5.821647E2,7.6378394E2,4.2291327E2,7.42157E0,4.0444873E2,4.940039E1,3.8325806E2,1.4906082E2,0E0,0E0,2.7399066E2,3.9241028E1,3.0841064E0,0E0,2.2212842E2,3.731313E1,2.6012768E1,0E0,1.7918457E2,7.102539E0,1.468512E1,0E0,1.3314514E0,0E0,1.115636E2,2.9002094E1,1.13674164E-1,0E0,7.039261E-2,0E0,7.2393585E1,4.1932953E1,4.0414124E0,0E0,1.3308716E0,0E0,3.491516E-1,0E0,0E0,0E0,0E0,0E0,0E0,0E0,0E0,0E0,0E0,0E0,0E0,0E0,0E0,0E0,0E0,0E0,0E0,0E0],"parents":[2147483647,0,0,1,1,2,2,3,3,4,4,5,5,6,6,7,7,8,8,11,11,12,12,13,13,15,15,16,16,17,17,19,19,20,20,21,21,23,23,25,25,26,26,27,27,29,29,31,31,32,32,33,33,35,35,37,37],"right_children":[2,4,6,8,10,12,14,16,18,-1,-1,20,22,24,-1,26,28,30,-1,32,34,36,-1,38,-1,40,42,44,-1,46,-1,48,50,52,-1,54,-1,56,-1,-1,-1,-1,-1,-1,-1,-1,-1,-1,-1,-1,-1,-1,-1,-1,-1,-1,-1],"split_conditions":[5E-1,5E-1,5E-1,5E-1,5E-1,5E-1,5E-1,5E-1,5E-1,4.2870836E-3,2.7212184E-3,5E-1,5E-1,5E-1,-1.45513E-3,5E-1,5E-1,5E-1,6.1299913E-3,5E-1,5E-1,5E-1,-9.16329E-4,5E-1,-7.688682E-3,5E-1,5E-1,5E-1,1.2113854E-2,5E-1,6.6574505E-3,5E-1,5E-1,5E-1,6.998194E-3,5E-1,1.466416E-2,5E-1,-1.3107805E-2,-5.025264E-3,3.3457433E-3,-7.849228E-4,7.5191534E-3,1.0178321E-3,1.2219389E-3,-8.7664503E-4,-6.157204E-4,1.4839423E-3,-1.6163087E-3,4.461603E-3,9.7034015E-3,4.9021128E-3,6.984069E-3,1.0294821E-2,8.371761E-3,-1.0263358E-2,-1.22499205E-2],"split_indices":[5,1,9,4,8,0,1,2,8,0,0,1,6,2,0,7,0,0,0,4,3,2,0,7,0,0,0,8,0,3,0,6,8,8,0,1,0,4,0,0,0,0,0,0,0,0,0,0,0,0,0,0,0,0,0,0,0],"split_type":[0,0,0,0,0,0,0,0,0,0,0,0,0,0,0,0,0,0,0,0,0,0,0,0,0,0,0,0,0,0,0,0,0,0,0,0,0,0,0,0,0,0,0,0,0,0,0,0,0,0,0,0,0,0,0,0,0],"sum_hessian":[2.7757799E4,1.3962991E4,1.3794808E4,1.2480219E4,1.4827719E3,1.3237535E4,5.5727234E2,1.0913065E4,1.5671542E3,1.0461056E3,4.366663E2,1.2567967E4,6.69569E2,4.873316E2,6.994072E1,9.480168E3,1.432897E3,9.9659766E2,5.705566E2,1.1203536E4,1.3644299E3,6.392476E2,3.0321365E1,4.388265E2,4.85051E1,8.0933193E3,1.386849E3,1.4025372E3,3.0359644E1,9.462589E2,5.033874E1,9.913856E3,1.28968E3,5.1106497E2,8.53365E2,5.539367E2,8.531089E1,3.9991913E2,3.8907375E1,7.931499E3,1.6182011E2,1.3444297E3,4.2419224E1,9.6675696E2,4.3578033E2,1.2548941E2,8.207695E2,9.093466E3,8.2039075E2,1.112511E3,1.7716899E2,3.7570883E2,1.3535612E2,4.820791E2,7.185762E1,3.6010757E2,3.981154E1],"tree_param":{"num_deleted":"0","num_feature":"10","num_nodes":"57","size_leaf_vector":"0"}},{"base_weights":[3.5968224E-5,-2.0733738E-1,2.0993607E-1,-2.7703154E-1,3.7903744E-1,2.5775972E-1,-9.25322E-1,-3.4610394E-1,2.0385912E-1,4.244955E-1,2.6942477E-1,2.1775211E-1,1.0079437E0,-1.0370257E0,-1.4408112E-1,-4.1824937E-1,1.3110074E-1,-2.7294224E-2,6.070844E-1,1.6669469E-1,6.3670015E-1,1.0601716E0,-9.074622E-2,-1.0656673E0,-7.6173013E-1,-4.8100057E-1,-5.2039757E-2,1.0712814E-1,1.2011747E0,-6.4472035E-2,6.5947455E-1,1.2150077E-1,5.138263E-1,5.41314E-1,6.931338E-1,9.9696344E-1,1.4546593E0,-1.0396997E0,-1.2999338E0,-4.976147E-1,3.3128244E-1,-7.7708334E-2,7.4493796E-1,1.0076738E-1,1.2097623E-1,-8.679563E-2,-6.095747E-2,1.4691363E-1,-1.6002026E-1,4.417816E-1,9.6149635E-1,4.8542672E-1,6.9177485E-1,1.0201727E0,8.2943285E-1,-1.0170555E0,-1.2146233E0],"categories":[],"categories_nodes":[],"categories_segments":[],"categories_sizes":[],"default_left":[1,1,1,1,1,1,1,1,1,0,0,1,1,1,0,1,1,1,0,1,1,1,0,1,0,1,1,1,0,1,0,1,1,1,0,1,0,1,0,0,0,0,0,0,0,0,0,0,0,0,0,0,0,0,0,0,0],"id":17,"left_children":[1,3,5,7,9,11,13,15,17,-1,-1,19,21,23,-1,25,27,29,-1,31,33,35,-1,37,-1,39,41,43,-1,45,-1,47,49,51,-1,53,-1,55,-1,-1,-1,-1,-1,-1,-1,-1,-1,-1,-1,-1,-1,-1,-1,-1,-1,-1,-1],"loss_changes":[1.2081238E3,5.7067554E2,7.491238E2,4.1458014E2,7.2779236E0,3.9705792E2,4.8528076E1,3.7574072E2,1.4615926E2,0E0,0E0,2.6872656E2,3.853711E1,3.034912E0,0E0,2.1781091E2,3.66529E1,2.5513134E1,0E0,1.757084E2,6.972168E0,1.4497803E1,0E0,1.3213806E0,0E0,1.0937622E2,2.8448915E1,1.1143875E-1,0E0,6.902909E-2,0E0,7.0955505E1,4.1191376E1,3.9689026E0,0E0,1.3095703E0,0E0,3.5116577E-1,0E0,0E0,0E0,0E0,0E0,0E0,0E0,0E0,0E0,0E0,0E0,0E0,0E0,0E0,0E0,0E0,0E0,0E0,0E0],"parents":[2147483647,0,0,1,1,2,2,3,3,4,4,5,5,6,6,7,7,8,8,11,11,12,12,13,13,15,15,16,16,17,17,19,19,20,20,21,21,23,23,25,25,26,26,27,27,29,29,31,31,32,32,33,33,35,35,37,37],"right_children":[2,4,6,8,10,12,14,16,18,-1,-1,20,22,24,-1,26,28,30,-1,32,34,36,-1,38,-1,40,42,44,-1,46,-1,48,50,52,-1,54,-1,56,-1,-1,-1,-1,-1,-1,-1,-1,-1,-1,-1,-1,-1,-1,-1,-1,-1,-1,-1],"split_conditions":[5E-1,5E-1,5E-1,5E-1,5E-1,5E-1,5E-1,5E-1,5E-1,4.244955E-3,2.6942475E-3,5E-1,5E-1,5E-1,-1.4408111E-3,5E-1,5E-1,5E-1,6.070844E-3,5E-1,5E-1,5E-1,-9.0746215E-4,5E-1,-7.6173013E-3,5E-1,5E-1,5E-1,1.2011747E-2,5E-1,6.5947454E-3,5E-1,5E-1,5E-1,6.9313375E-3,5E-1,1.4546593E-2,5E-1,-1.2999337E-2,-4.976147E-3,3.3128243E-3,-7.7708333E-4,7.449379E-3,1.0076738E-3,1.2097623E-3,-8.6795626E-4,-6.0957466E-4,1.4691363E-3,-1.6002026E-3,4.417816E-3,9.614963E-3,4.854267E-3,6.917748E-3,1.0201727E-2,8.294328E-3,-1.0170555E-2,-1.2146233E-2],"split_indices":[5,1,9,4,8,0,1,2,8,0,0,1,6,2,0,7,0,0,0,4,3,2,0,7,0,0,0,8,0,3,0,6,8,8,0,1,0,4,0,0,0,0,0,0,0,0,0,0,0,0,0,0,0,0,0,0,0],"split_type":[0,0,0,0,0,0,0,0,0,0,0,0,0,0,0,0,0,0,0,0,0,0,0,0,0,0,0,0,0,0,0,0,0,0,0,0,0,0,0,0,0,0,0,0,0,0,0,0,0,0,0,0,0,0,0,0,0],"sum_hessian":[2.7753295E4,1.3960682E4,1.3792612E4,1.2478111E4,1.4825706E3,1.3235815E4,5.567962E2,1.0911173E4,1.566939E3,1.0459333E3,4.366373E2,1.2566908E4,6.689079E2,4.8685684E2,6.9939384E1,9.47833E3,1.4328427E3,9.965741E2,5.703648E2,1.1202991E4,1.3639167E3,6.3858673E2,3.0321136E1,4.3837732E2,4.8479538E1,8.09151E3,1.3868201E3,1.4025225E3,3.0320242E1,9.462553E2,5.031883E1,9.913658E3,1.2893333E3,5.1092517E2,8.529916E2,5.534375E2,8.514927E1,3.9952896E2,3.8848343E1,7.929706E3,1.6180388E2,1.3444222E3,4.2397842E1,9.667479E2,4.357745E2,1.25488556E2,8.207667E2,9.093286E3,8.203715E2,1.1123127E3,1.7702054E2,3.7562802E2,1.3529715E2,4.8162476E2,7.1812744E1,3.597703E2,3.975868E1],"tree_param":{"num_deleted":"0","num_feature":"10","num_nodes":"57","size_leaf_vector":"0"}},{"base_weights":[3.7617876E-5,-2.0529711E-1,2.0787296E-1,-2.7430758E-1,3.7530538E-1,2.5522205E-1,-9.1697097E-1,-3.427038E-1,2.0185721E-1,4.2032734E-1,2.6675552E-1,2.1559626E-1,9.989481E-1,-1.0277941E0,-1.4266348E-1,-4.141509E-1,1.2980492E-1,-2.7016617E-2,6.012363E-1,1.650373E-1,6.3059604E-1,1.050762E0,-8.98686E-2,-1.0562253E0,-7.546765E-1,-4.7630283E-1,-5.1515512E-2,1.0605958E-1,1.1911207E0,-6.3828975E-2,6.532744E-1,1.2028806E-1,5.088429E-1,5.3607774E-1,6.86526E-1,9.879615E-1,1.4431249E0,-1.0304127E0,-1.2892671E0,-4.927564E-1,3.2802412E-1,-7.693217E-2,7.380422E-1,9.976165E-2,1.1977095E-1,-8.593503E-2,-6.0348693E-2,1.4544743E-1,-1.5842588E-1,4.3744972E-1,9.5277E-1,4.8069382E-1,6.852194E-1,1.0109918E0,8.217843E-1,-1.0079029E0,-1.2044154E0],"categories":[],"categories_nodes":[],"categories_segments":[],"categories_sizes":[],"default_left":[1,1,1,1,1,1,1,1,1,0,0,1,1,1,0,1,1,1,0,1,1,1,0,1,0,1,1,1,0,1,0,1,1,1,0,1,0,1,0,0,0,0,0,0,0,0,0,0,0,0,0,0,0,0,0,0,0],"id":18,"left_children":[1,3,5,7,9,11,13,15,17,-1,-1,19,21,23,-1,25,27,29,-1,31,33,35,-1,37,-1,39,41,43,-1,45,-1,47,49,51,-1,53,-1,55,-1,-1,-1,-1,-1,-1,-1,-1,-1,-1,-1,-1,-1,-1,-1,-1,-1,-1,-1],"loss_changes":[1.1842788E3,5.594182E2,7.347643E2,4.0641534E2,7.1372375E0,3.8983026E2,4.7675873E1,3.6837537E2,1.4331693E2,0E0,0E0,2.6357196E2,3.7848938E1,2.9873047E0,0E0,2.1358179E2,3.6006966E1,2.5023449E1,0E0,1.723039E2,6.8446655E0,1.4317017E1,0E0,1.311676E0,0E0,1.0723352E2,2.7906837E1,1.09249115E-1,0E0,6.769109E-2,0E0,6.954582E1,4.0466705E1,3.897934E0,0E0,1.2891235E0,0E0,3.5327148E-1,0E0,0E0,0E0,0E0,0E0,0E0,0E0,0E0,0E0,0E0,0E0,0E0,0E0,0E0,0E0,0E0,0E0,0E0,0E0],"parents":[2147483647,0,0,1,1,2,2,3,3,4,4,5,5,6,6,7,7,8,8,11,11,12,12,13,13,15,15,16,16,17,17,19,19,20,20,21,21,23,23,25,25,26,26,27,27,29,29,31,31,32,32,33,33,35,35,37,37],"right_children":[2,4,6,8,10,12,14,16,18,-1,-1,20,22,24,-1,26,28,30,-1,32,34,36,-1,38,-1,40,42,44,-1,46,-1,48,50,52,-1,54,-1,56,-1,-1,-1,-1,-1,-1,-1,-1,-1,-1,-1,-1,-1,-1,-1,-1,-1,-1,-1],"split_conditions":[5E-1,5E-1,5E-1,5E-1,5E-1,5E-1,5E-1,5E-1,5E-1,4.2032734E-3,2.6675551E-3,5E-1,5E-1,5E-1,-1.4266347E-3,5E-1,5E-1,5E-1,6.012363E-3,5E-1,5E-1,5E-1,-8.9868595E-4,5E-1,-7.5467653E-3,5E-1,5E-1,5E-1,1.1911207E-2,5E-1,6.532744E-3,5E-1,5E-1,5E-1,6.8652597E-3,5E-1,1.4431248E-2,5E-1,-1.289267E-2,-4.927564E-3,3.280241E-3,-7.693217E-4,7.3804217E-3,9.976164E-4,1.1977095E-3,-8.5935026E-4,-6.034869E-4,1.4544743E-3,-1.5842587E-3,4.374497E-3,9.5277E-3,4.806938E-3,6.8521937E-3,1.0109918E-2,8.217843E-3,-1.0079028E-2,-1.2044154E-2],"split_indices":[5,1,9,4,8,0,1,2,8,0,0,1,6,2,0,7,0,0,0,4,3,2,0,7,0,0,0,8,0,3,0,6,8,8,0,1,0,4,0,0,0,0,0,0,0,0,0,0,0,0,0,0,0,0,0,0,0],"split_type":[0,0,0,0,0,0,0,0,0,0,0,0,0,0,0,0,0,0,0,0,0,0,0,0,0,0,0,0,0,0,0,0,0,0,0,0,0,0,0,0,0,0,0,0,0,0,0,0,0,0,0,0,0,0,0,0,0],"sum_hessian":[2.7748586E4,1.395827E4,1.3790316E4,1.2475909E4,1.4823604E3,1.3234018E4,5.562987E2,1.0909195E4,1.5667139E3,1.0457533E3,4.3660703E2,1.2565801E4,6.6821704E2,4.8636066E2,6.9938E1,9.476409E3,1.432786E3,9.9654944E2,5.701644E2,1.120242E4,1.3633805E3,6.378961E2,3.0320896E1,4.3790784E2,4.845282E1,8.0896196E3,1.38679E3,1.402507E3,3.0279055E1,9.4625146E2,5.029801E1,9.913449E3,1.2889708E3,5.1077908E2,8.526014E2,5.529158E2,8.498037E1,3.9912122E2,3.8786636E1,7.9278325E3,1.6178693E2,1.3444146E3,4.2375496E1,9.667385E2,4.3576843E2,1.2548765E2,8.207638E2,9.093098E3,8.203514E2,1.1121055E3,1.768654E2,3.7554355E2,1.3523553E2,4.8114993E2,7.176584E1,3.594178E2,3.970344E1],"tree_param":{"num_deleted":"0","num_feature":"10","num_nodes":"57","size_leaf_vector":"0"}},{"base_weights":[3.94382E-5,-2.0327832E-1,2.0583183E-1,-2.7161232E-1,3.7161213E-1,2.5271112E-1,-9.087301E-1,-3.3933946E-1,1.998759E-1,4.16203E-1,2.6411328E-1,2.1346286E-1,9.9007666E-1,-1.0186893E0,-1.4125997E-1,-4.1009593E-1,1.2852225E-1,-2.6742097E-2,5.954529E-1,1.6339713E-1,6.2456065E-1,1.0414845E0,-8.8999175E-2,-1.046915E0,-7.4770504E-1,-4.7165537E-1,-5.099702E-2,1.05001815E-1,1.181219E0,-6.3192636E-2,6.471443E-1,1.19087994E-1,5.039136E-1,5.308983E-1,6.7999417E-1,9.7908026E-1,1.4318056E0,-1.0212532E0,-1.278775E0,-3.173481E-1,-5.572959E-1,-7.616422E-2,7.3122644E-1,9.876615E-2,1.1857771E-1,-8.508312E-2,-5.9746318E-2,1.4399646E-1,-1.5684749E-1,4.3316355E-1,9.441577E-1,4.760113E-1,6.787386E-1,1.0019356E0,8.1422895E-1,-9.9887437E-1,-1.1943643E0],"categories":[],"categories_nodes":[],"categories_segments":[],"categories_sizes":[],"default_left":[1,1,1,1,1,1,1,1,1,0,0,1,1,1,0,1,1,1,0,1,1,1,0,1,0,1,1,1,0,1,0,1,1,1,0,1,0,1,0,0,0,0,0,0,0,0,0,0,0,0,0,0,0,0,0,0,0],"id":19,"left_children":[1,3,5,7,9,11,13,15,17,-1,-1,19,21,23,-1,25,27,29,-1,31,33,35,-1,37,-1,39,41,43,-1,45,-1,47,49,51,-1,53,-1,55,-1,-1,-1,-1,-1,-1,-1,-1,-1,-1,-1,-1,-1,-1,-1,-1,-1,-1,-1],"loss_changes":[1.1609141E3,5.4838617E2,7.206992E2,3.9841394E2,6.9994507E0,3.8276E2,4.6842987E1,3.6115833E2,1.4053242E2,0E0,0E0,2.5852295E2,3.717627E1,2.940979E0,0E0,2.094386E2,3.5374878E1,2.454359E1,0E0,1.6896814E2,6.7200317E0,1.4142639E1,0E0,1.3026428E0,0E0,1.0671448E2,2.737564E1,1.0709953E-1,0E0,6.6378355E-2,0E0,6.81644E1,3.975836E1,3.8285217E0,0E0,1.269165E0,0E0,3.554077E-1,0E0,0E0,0E0,0E0,0E0,0E0,0E0,0E0,0E0,0E0,0E0,0E0,0E0,0E0,0E0,0E0,0E0,0E0,0E0],"parents":[2147483647,0,0,1,1,2,2,3,3,4,4,5,5,6,6,7,7,8,8,11,11,12,12,13,13,15,15,16,16,17,17,19,19,20,20,21,21,23,23,25,25,26,26,27,27,29,29,31,31,32,32,33,33,35,35,37,37],"right_children":[2,4,6,8,10,12,14,16,18,-1,-1,20,22,24,-1,26,28,30,-1,32,34,36,-1,38,-1,40,42,44,-1,46,-1,48,50,52,-1,54,-1,56,-1,-1,-1,-1,-1,-1,-1,-1,-1,-1,-1,-1,-1,-1,-1,-1,-1,-1,-1],"split_conditions":[5E-1,5E-1,5E-1,5E-1,5E-1,5E-1,5E-1,5E-1,5E-1,4.16203E-3,2.6411328E-3,5E-1,5E-1,5E-1,-1.4125997E-3,5E-1,5E-1,5E-1,5.9545287E-3,5E-1,5E-1,5E-1,-8.899917E-4,5E-1,-7.47705E-3,5E-1,5E-1,5E-1,1.181219E-2,5E-1,6.471443E-3,5E-1,5E-1,5E-1,6.7999414E-3,5E-1,1.43180555E-2,5E-1,-1.2787749E-2,-3.1734807E-3,-5.572959E-3,-7.6164224E-4,7.3122643E-3,9.876614E-4,1.1857771E-3,-8.5083116E-4,-5.9746316E-4,1.4399646E-3,-1.5684749E-3,4.3316353E-3,9.441577E-3,4.760113E-3,6.787386E-3,1.0019355E-2,8.14229E-3,-9.988744E-3,-1.1943643E-2],"split_indices":[5,1,9,4,8,0,1,2,8,0,0,1,6,2,0,7,0,0,0,4,3,2,0,7,0,3,0,8,0,3,0,6,8,8,0,1,0,4,0,0,0,0,0,0,0,0,0,0,0,0,0,0,0,0,0,0,0],"split_type":[0,0,0,0,0,0,0,0,0,0,0,0,0,0,0,0,0,0,0,0,0,0,0,0,0,0,0,0,0,0,0,0,0,0,0,0,0,0,0,0,0,0,0,0,0,0,0,0,0,0,0,0,0,0,0,0,0],"sum_hessian":[2.7743682E4,1.3955756E4,1.3787927E4,1.2473614E4,1.4821414E3,1.3232146E4,5.557804E2,1.0907135E4,1.5664796E3,1.0455659E3,4.3657544E2,1.2564648E4,6.6749756E2,4.8584387E2,6.993656E1,9.474408E3,1.4327269E3,9.965238E2,5.699558E2,1.1201827E4,1.3628219E3,6.371769E2,3.0320652E1,4.3741888E2,4.8424988E1,8.0876494E3,1.3867587E3,1.4024907E3,3.0236143E1,9.462475E2,5.027633E1,9.913233E3,1.2885934E3,5.1062692E2,8.5219495E2,5.5237244E2,8.480445E1,3.9869653E2,3.872235E1,2.888269E3,5.1993804E3,1.3444065E3,4.2352215E1,9.667287E2,4.3576205E2,1.2548671E2,8.207608E2,9.092903E3,8.2033057E2,1.1118895E3,1.7670383E2,3.7545557E2,1.3517136E2,4.8065546E2,7.171698E1,3.5905063E2,3.964589E1],"tree_param":{"num_deleted":"0","num_feature":"10","num_nodes":"57","size_leaf_vector":"0"}},{"base_weights":[4.0820767E-5,-2.0127997E-1,2.0381181E-1,-2.6894408E-1,3.679572E-1,2.5022593E-1,-9.005967E-1,-3.360085E-1,1.9791538E-1,4.1212183E-1,2.6149777E-1,2.1135098E-1,9.813261E-1,-1.0097079E0,-1.398702E-1,-4.0608087E-1,1.2725237E-1,-2.6470218E-2,5.897338E-1,1.6177322E-1,6.1859286E-1,1.0323352E0,-8.8138334E-2,-1.0377332E0,-7.408148E-1,-4.6705338E-1,-5.0483327E-2,1.0395456E-1,1.171465E0,-6.256244E-2,6.41082E-1,1.17899574E-1,4.9903783E-1,5.25775E-1,6.7353696E-1,9.703166E-1,1.4206948E0,-1.0122181E0,-1.2684522E0,-4.8332405E-1,3.2791936E-1,-7.540349E-2,7.244889E-1,9.778051E-2,1.17396384E-1,-8.4239766E-2,-5.914972E-2,1.4255963E-1,-1.552852E-1,4.2892268E-1,9.3565714E-1,4.7137865E-1,6.7233187E-1,9.93001E-1,8.0676425E-1,-9.89967E-1,-1.1844652E0],"categories":[],"categories_nodes":[],"categories_segments":[],"categories_sizes":[],"default_left":[1,1,1,1,1,1,1,1,1,0,0,1,1,1,0,1,1,1,0,1,1,1,0,1,0,1,1,1,0,1,0,1,1,1,0,1,0,1,0,0,0,0,0,0,0,0,0,0,0,0,0,0,0,0,0,0,0],"id":20,"left_children":[1,3,5,7,9,11,13,15,17,-1,-1,19,21,23,-1,25,27,29,-1,31,33,35,-1,37,-1,39,41,43,-1,45,-1,47,49,51,-1,53,-1,55,-1,-1,-1,-1,-1,-1,-1,-1,-1,-1,-1,-1,-1,-1,-1,-1,-1,-1,-1],"loss_changes":[1.1380153E3,5.375732E2,7.069207E2,3.905705E2,6.864517E0,3.7584314E2,4.6029022E1,3.540829E2,1.378045E2,0E0,0E0,2.53578E2,3.651831E1,2.8959045E0,0E0,2.0537598E2,3.4756256E1,2.4073254E1,0E0,1.6570059E2,6.5981445E0,1.3974243E1,0E0,1.2939148E0,0E0,1.0475781E2,2.6855E1,1.0499573E-1,0E0,6.509328E-2,0E0,6.681036E1,3.9065796E1,3.7605896E0,0E0,1.2498169E0,0E0,3.576355E-1,0E0,0E0,0E0,0E0,0E0,0E0,0E0,0E0,0E0,0E0,0E0,0E0,0E0,0E0,0E0,0E0,0E0,0E0,0E0],"parents":[2147483647,0,0,1,1,2,2,3,3,4,4,5,5,6,6,7,7,8,8,11,11,12,12,13,13,15,15,16,16,17,17,19,19,20,20,21,21,23,23,25,25,26,26,27,27,29,29,31,31,32,32,33,33,35,35,37,37],"right_children":[2,4,6,8,10,12,14,16,18,-1,-1,20,22,24,-1,26,28,30,-1,32,34,36,-1,38,-1,40,42,44,-1,46,-1,48,50,52,-1,54,-1,56,-1,-1,-1,-1,-1,-1,-1,-1,-1,-1,-1,-1,-1,-1,-1,-1,-1,-1,-1],"split_conditions":[5E-1,5E-1,5E-1,5E-1,5E-1,5E-1,5E-1,5E-1,5E-1,4.1212183E-3,2.6149775E-3,5E-1,5E-1,5E-1,-1.3987019E-3,5E-1,5E-1,5E-1,5.8973376E-3,5E-1,5E-1,5E-1,-8.813833E-4,5E-1,-7.4081477E-3,5E-1,5E-1,5E-1,1.171465E-2,5E-1,6.41082E-3,5E-1,5E-1,5E-1,6.7353696E-3,5E-1,1.4206948E-2,5E-1,-1.2684521E-2,-4.8332405E-3,3.2791935E-3,-7.540349E-4,7.244889E-3,9.778051E-4,1.1739638E-3,-8.423976E-4,-5.9149717E-4,1.4255963E-3,-1.5528519E-3,4.2892266E-3,9.356571E-3,4.7137863E-3,6.7233187E-3,9.93001E-3,8.067642E-3,-9.899669E-3,-1.1844652E-2],"split_indices":[5,1,9,4,8,0,1,2,8,0,0,1,6,2,0,7,0,0,0,4,3,2,0,7,0,0,0,8,0,3,0,6,8,8,0,1,0,4,0,0,0,0,0,0,0,0,0,0,0,0,0,0,0,0,0,0,0],"split_type":[0,0,0,0,0,0,0,0,0,0,0,0,0,0,0,0,0,0,0,0,0,0,0,0,0,0,0,0,0,0,0,0,0,0,0,0,0,0,0,0,0,0,0,0,0,0,0,0,0,0,0,0,0,0,0,0,0],"sum_hessian":[2.773868E4,1.3953234E4,1.3785444E4,1.2471321E4,1.481914E3,1.3230202E4,5.552422E2,1.0905085E4,1.5662363E3,1.0453712E3,4.365427E2,1.2563452E4,6.667503E2,4.8530713E2,6.993507E1,9.472419E3,1.4326656E3,9.9649713E2,5.6973914E2,1.120121E4,1.3622417E3,6.3642993E2,3.032039E1,4.3691107E2,4.8396084E1,8.085693E3,1.3867261E3,1.402474E3,3.019156E1,9.4624335E2,5.0253807E1,9.913009E3,1.2882013E3,5.104689E2,8.517729E2,5.5180817E2,8.462175E1,3.982555E2,3.865558E1,7.9239067E3,1.6178636E2,1.3443981E3,4.2328037E1,9.6671857E2,4.3575546E2,1.2548573E2,8.207576E2,9.0927E3,8.2030884E2,1.1116653E3,1.7653603E2,3.753642E2,1.3510469E2,4.8014194E2,7.1666245E1,3.5866937E2,3.9586113E1],"tree_param":{"num_deleted":"0","num_feature":"10","num_nodes":"57","size_leaf_vector":"0"}},{"base_weights":[4.25184E-5,-1.9930333E-1,2.0181313E-1,-2.6630515E-1,3.643404E-1,2.4776675E-1,-8.925682E-1,-3.3271453E-1,1.9597508E-1,4.0808365E-1,2.5890896E-1,2.0926093E-1,9.726934E-1,-1.000847E0,-1.3849422E-1,-4.0211123E-1,1.2599544E-1,-2.6201237E-2,5.8407754E-1,1.6016598E-1,6.126917E-1,1.023311E0,-8.728596E-2,-1.0286763E0,-7.340041E-1,-4.6250457E-1,-4.9974833E-2,1.0291798E-1,1.1618551E0,-6.1938677E-2,6.350868E-1,1.1672335E-1,4.9421462E-1,5.2070713E-1,6.671532E-1,9.616679E-1,1.4097853E0,-1.0033041E0,-1.2582935E0,-3.0992448E-1,-5.472006E-1,-7.465036E-2,7.178284E-1,9.680498E-2,1.1622696E-1,-8.340465E-2,-5.855925E-2,1.411375E-1,-1.5373823E-1,4.2472628E-1,9.272657E-1,4.6679538E-1,6.659974E-1,9.841851E-1,7.99389E-1,-9.8117745E-1,-1.1747139E0],"categories":[],"categories_nodes":[],"categories_segments":[],"categories_sizes":[],"default_left":[1,1,1,1,1,1,1,1,1,0,0,1,1,1,0,1,1,1,0,1,1,1,0,1,0,1,1,1,0,1,0,1,1,1,0,1,0,1,0,0,0,0,0,0,0,0,0,0,0,0,0,0,0,0,0,0,0],"id":21,"left_children":[1,3,5,7,9,11,13,15,17,-1,-1,19,21,23,-1,25,27,29,-1,31,33,35,-1,37,-1,39,41,43,-1,45,-1,47,49,51,-1,53,-1,55,-1,-1,-1,-1,-1,-1,-1,-1,-1,-1,-1,-1,-1,-1,-1,-1,-1,-1,-1],"loss_changes":[1.1155773E3,5.269789E2,6.93423E2,3.828866E2,6.732315E0,3.6907465E2,4.5233185E1,3.471532E2,1.3513191E2,0E0,0E0,2.4873401E2,3.587506E1,2.8521423E0,0E0,2.0139954E2,3.415071E1,2.3612274E1,0E0,1.6249893E2,6.478882E0,1.3811523E1,0E0,1.2857361E0,0E0,1.0430676E2,2.6344734E1,1.0293102E-1,0E0,6.383109E-2,0E0,6.54832E1,3.838861E1,3.6940918E0,0E0,1.2311401E0,0E0,3.598938E-1,0E0,0E0,0E0,0E0,0E0,0E0,0E0,0E0,0E0,0E0,0E0,0E0,0E0,0E0,0E0,0E0,0E0,0E0,0E0],"parents":[2147483647,0,0,1,1,2,2,3,3,4,4,5,5,6,6,7,7,8,8,11,11,12,12,13,13,15,15,16,16,17,17,19,19,20,20,21,21,23,23,25,25,26,26,27,27,29,29,31,31,32,32,33,33,35,35,37,37],"right_children":[2,4,6,8,10,12,14,16,18,-1,-1,20,22,24,-1,26,28,30,-1,32,34,36,-1,38,-1,40,42,44,-1,46,-1,48,50,52,-1,54,-1,56,-1,-1,-1,-1,-1,-1,-1,-1,-1,-1,-1,-1,-1,-1,-1,-1,-1,-1,-1],"split_conditions":[5E-1,5E-1,5E-1,5E-1,5E-1,5E-1,5E-1,5E-1,5E-1,4.080836E-3,2.5890896E-3,5E-1,5E-1,5E-1,-1.3849422E-3,5E-1,5E-1,5E-1,5.840775E-3,5E-1,5E-1,5E-1,-8.7285956E-4,5E-1,-7.3400405E-3,5E-1,5E-1,5E-1,1.1618551E-2,5E-1,6.3508675E-3,5E-1,5E-1,5E-1,6.6715316E-3,5E-1,1.4097853E-2,5E-1,-1.2582934E-2,-3.0992448E-3,-5.4720063E-3,-7.465036E-4,7.1782838E-3,9.6804975E-4,1.1622696E-3,-8.340465E-4,-5.8559247E-4,1.4113749E-3,-1.5373823E-3,4.2472626E-3,9.272656E-3,4.6679536E-3,6.659974E-3,9.841851E-3,7.99389E-3,-9.811774E-3,-1.1747139E-2],"split_indices":[5,1,9,4,8,0,1,2,8,0,0,1,6,2,0,7,0,0,0,4,3,2,0,7,0,3,0,8,0,3,0,6,8,8,0,1,0,4,0,0,0,0,0,0,0,0,0,0,0,0,0,0,0,0,0,0,0],"split_type":[0,0,0,0,0,0,0,0,0,0,0,0,0,0,0,0,0,0,0,0,0,0,0,0,0,0,0,0,0,0,0,0,0,0,0,0,0,0,0,0,0,0,0,0,0,0,0,0,0,0,0,0,0,0,0,0,0],"sum_hessian":[2.7733408E4,1.3950535E4,1.3782873E4,1.2468856E4,1.4816783E3,1.3228188E4,5.546847E2,1.0902873E4,1.5659841E3,1.0451697E3,4.3650876E2,1.2562212E4,6.659764E2,4.847512E2,6.993351E1,9.4702705E3,1.432602E3,9.964695E2,5.6951465E2,1.1200571E4,1.361641E3,6.3565625E2,3.0320126E1,4.3638507E2,4.8366123E1,8.083578E3,1.3866923E3,1.4024567E3,3.0145372E1,9.46239E2,5.0230473E1,9.912775E3,1.2877954E3,5.1030524E2,8.5133575E2,5.5122375E2,8.443251E1,3.9779868E2,3.85864E1,2.8871077E3,5.1964707E3,1.3443893E3,4.2302982E1,9.667081E2,4.3574863E2,1.2548472E2,8.207543E2,9.092489E3,8.202864E2,1.1114331E3,1.7636221E2,3.752696E2,1.3503564E2,4.7961008E2,7.161368E1,3.582745E2,3.952418E1],"tree_param":{"num_deleted":"0","num_feature":"10","num_nodes":"57","size_leaf_vector":"0"}},{"base_weights":[4.3821183E-5,-1.9734679E-1,1.9983524E-1,-2.6369274E-1,3.6076102E-1,2.4533293E-1,-8.846421E-1,-3.2945332E-1,1.9405495E-1,4.0408754E-1,2.563465E-1,2.0719217E-1,9.641756E-1,-9.9210334E-1,-1.37132E-1,-3.9818063E-1,1.24750756E-1,-2.5934963E-2,5.7848334E-1,1.5857492E-1,6.06856E-1,1.0144086E0,-8.644151E-2,-1.0197413E0,-7.27271E-1,-4.580002E-1,-4.9471613E-2,1.01891376E-1,1.152385E0,-6.132108E-2,6.291573E-1,1.15558855E-1,4.894433E-1,5.156938E-1,6.608415E-1,9.5313114E-1,1.399071E0,-9.945083E-1,-1.2482942E0,-4.7409087E-1,3.277423E-1,-7.390489E-2,7.1124333E-1,9.583864E-2,1.1506924E-1,-8.257787E-2,-5.7974618E-2,1.3972956E-1,-1.5220726E-1,4.20574E-1,9.189805E-1,4.6226063E-1,6.597343E-1,9.7548485E-1,7.9210067E-1,-9.725031E-1,-1.1651064E0],"categories":[],"categories_nodes":[],"categories_segments":[],"categories_sizes":[],"default_left":[1,1,1,1,1,1,1,1,1,0,0,1,1,1,0,1,1,1,0,1,1,1,0,1,0,1,1,1,0,1,0,1,1,1,0,1,0,1,0,0,0,0,0,0,0,0,0,0,0,0,0,0,0,0,0,0,0],"id":22,"left_children":[1,3,5,7,9,11,13,15,17,-1,-1,19,21,23,-1,25,27,29,-1,31,33,35,-1,37,-1,39,41,43,-1,45,-1,47,49,51,-1,53,-1,55,-1,-1,-1,-1,-1,-1,-1,-1,-1,-1,-1,-1,-1,-1,-1,-1,-1,-1,-1],"loss_changes":[1.0935886E3,5.1659515E2,6.8019904E2,3.753545E2,6.6028137E0,3.624505E2,4.4454865E1,3.403589E2,1.325134E2,0E0,0E0,2.4398907E2,3.5245544E1,2.8096313E0,0E0,1.9750012E2,3.35579E1,2.3160433E1,0E0,1.5936221E2,6.362274E0,1.3654358E1,0E0,1.2778015E0,0E0,1.0234314E2,2.5844622E1,1.0091305E-1,0E0,6.2594414E-2,0E0,6.418263E1,3.7726135E1,3.629013E0,0E0,1.2129822E0,0E0,3.623047E-1,0E0,0E0,0E0,0E0,0E0,0E0,0E0,0E0,0E0,0E0,0E0,0E0,0E0,0E0,0E0,0E0,0E0,0E0,0E0],"parents":[2147483647,0,0,1,1,2,2,3,3,4,4,5,5,6,6,7,7,8,8,11,11,12,12,13,13,15,15,16,16,17,17,19,19,20,20,21,21,23,23,25,25,26,26,27,27,29,29,31,31,32,32,33,33,35,35,37,37],"right_children":[2,4,6,8,10,12,14,16,18,-1,-1,20,22,24,-1,26,28,30,-1,32,34,36,-1,38,-1,40,42,44,-1,46,-1,48,50,52,-1,54,-1,56,-1,-1,-1,-1,-1,-1,-1,-1,-1,-1,-1,-1,-1,-1,-1,-1,-1,-1,-1],"split_conditions":[5E-1,5E-1,5E-1,5E-1,5E-1,5E-1,5E-1,5E-1,5E-1,4.0408755E-3,2.563465E-3,5E-1,5E-1,5E-1,-1.37132E-3,5E-1,5E-1,5E-1,5.7848333E-3,5E-1,5E-1,5E-1,-8.644151E-4,5E-1,-7.27271E-3,5E-1,5E-1,5E-1,1.1523849E-2,5E-1,6.291573E-3,5E-1,5E-1,5E-1,6.608415E-3,5E-1,1.399071E-2,5E-1,-1.2482942E-2,-4.7409087E-3,3.277423E-3,-7.390489E-4,7.112433E-3,9.583864E-4,1.1506923E-3,-8.257787E-4,-5.7974615E-4,1.3972955E-3,-1.5220725E-3,4.20574E-3,9.189805E-3,4.622606E-3,6.597343E-3,9.754849E-3,7.9210065E-3,-9.725031E-3,-1.1651064E-2],"split_indices":[5,1,9,4,8,0,1,2,8,0,0,1,6,2,0,7,0,0,0,4,3,2,0,7,0,0,0,8,0,3,0,6,8,8,0,1,0,4,0,0,0,0,0,0,0,0,0,0,0,0,0,0,0,0,0,0,0],"split_type":[0,0,0,0,0,0,0,0,0,0,0,0,0,0,0,0,0,0,0,0,0,0,0,0,0,0,0,0,0,0,0,0,0,0,0,0,0,0,0,0,0,0,0,0,0,0,0,0,0,0,0,0,0,0,0,0,0],"sum_hessian":[2.772805E4,1.3947834E4,1.3780217E4,1.2466398E4,1.4814349E3,1.3226108E4,5.541086E2,1.0900675E4,1.5657236E3,1.0449613E3,4.3647366E2,1.2560932E4,6.651767E2,4.841767E2,6.99319E1,9.468139E3,1.4325364E3,9.96441E2,5.692827E2,1.1199911E4,1.3610203E3,6.348569E2,3.0319853E1,4.3584152E2,4.833517E1,8.081481E3,1.3866575E3,1.4024387E3,3.009763E1,9.462346E2,5.020636E1,9.912535E3,1.2873759E3,5.101361E2,8.5088416E2,5.5061993E2,8.4236946E1,3.9732663E2,3.8514904E1,7.919696E3,1.6178542E2,1.3443805E3,4.2277084E1,9.666972E2,4.3574155E2,1.2548367E2,8.207509E2,9.092272E3,8.2026306E2,1.1111932E3,1.7618262E2,3.751718E2,1.349643E2,4.7906055E2,7.155935E1,3.5786646E2,3.9460163E1],"tree_param":{"num_deleted":"0","num_feature":"10","num_nodes":"57","size_leaf_vector":"0"}},{"base_weights":[4.551605E-5,-1.9541128E-1,1.9787817E-1,-2.6110873E-1,3.5721868E-1,2.4292445E-1,-8.768159E-1,-3.2622796E-1,1.9215456E-1,4.0013316E-1,2.5380993E-1,2.0514476E-1,9.5576966E-1,-9.8347396E-1,-1.3578309E-1,-3.9429408E-1,1.2351886E-1,-2.5671398E-2,5.7294995E-1,1.5700026E-1,6.0108453E-1,1.0056248E0,-8.560574E-2,-1.0109249E0,-7.206143E-1,-4.5354727E-1,-4.8973788E-2,1.0087536E-1,1.143051E0,-6.0709663E-2,6.2329316E-1,1.1440634E-1,4.8472327E-1,5.1073396E-1,6.546006E-1,9.447036E-1,1.388546E0,-9.858275E-1,-1.2384499E0,-3.0266592E-1,-5.37316E-1,-7.316718E-2,7.047321E-1,9.48824E-2,1.13923185E-1,-8.175909E-2,-5.7395875E-2,1.3833609E-1,-1.5069161E-1,4.1646537E-1,9.107993E-1,4.577736E-1,6.535408E-1,9.6689725E-1,7.84898E-1,-9.6394086E-1,-1.1556381E0],"categories":[],"categories_nodes":[],"categories_segments":[],"categories_sizes":[],"default_left":[1,1,1,1,1,1,1,1,1,0,0,1,1,1,0,1,1,1,0,1,1,1,0,1,0,1,1,1,0,1,0,1,1,1,0,1,0,1,0,0,0,0,0,0,0,0,0,0,0,0,0,0,0,0,0,0,0],"id":23,"left_children":[1,3,5,7,9,11,13,15,17,-1,-1,19,21,23,-1,25,27,29,-1,31,33,35,-1,37,-1,39,41,43,-1,45,-1,47,49,51,-1,53,-1,55,-1,-1,-1,-1,-1,-1,-1,-1,-1,-1,-1,-1,-1,-1,-1,-1,-1,-1,-1],"loss_changes":[1.0720413E3,5.064206E2,6.672427E2,3.679751E2,6.4759674E0,3.559663E2,4.3693695E1,3.3370435E2,1.2994766E2,0E0,0E0,2.3934009E2,3.462976E1,2.7681274E0,0E0,1.9368213E2,3.2977432E1,2.2717575E1,0E0,1.5628857E2,6.2481995E0,1.3502258E1,0E0,1.2703857E0,0E0,1.019646E2,2.535443E1,9.893036E-2,0E0,6.137991E-2,0E0,6.290805E1,3.7078033E1,3.5652924E0,0E0,1.195343E0,0E0,3.6468506E-1,0E0,0E0,0E0,0E0,0E0,0E0,0E0,0E0,0E0,0E0,0E0,0E0,0E0,0E0,0E0,0E0,0E0,0E0,0E0],"parents":[2147483647,0,0,1,1,2,2,3,3,4,4,5,5,6,6,7,7,8,8,11,11,12,12,13,13,15,15,16,16,17,17,19,19,20,20,21,21,23,23,25,25,26,26,27,27,29,29,31,31,32,32,33,33,35,35,37,37],"right_children":[2,4,6,8,10,12,14,16,18,-1,-1,20,22,24,-1,26,28,30,-1,32,34,36,-1,38,-1,40,42,44,-1,46,-1,48,50,52,-1,54,-1,56,-1,-1,-1,-1,-1,-1,-1,-1,-1,-1,-1,-1,-1,-1,-1,-1,-1,-1,-1],"split_conditions":[5E-1,5E-1,5E-1,5E-1,5E-1,5E-1,5E-1,5E-1,5E-1,4.0013315E-3,2.5380992E-3,5E-1,5E-1,5E-1,-1.3578308E-3,5E-1,5E-1,5E-1,5.7294993E-3,5E-1,5E-1,5E-1,-8.560574E-4,5E-1,-7.206143E-3,5E-1,5E-1,5E-1,1.143051E-2,5E-1,6.2329313E-3,5E-1,5E-1,5E-1,6.546006E-3,5E-1,1.388546E-2,5E-1,-1.2384499E-2,-3.0266591E-3,-5.3731604E-3,-7.316718E-4,7.047321E-3,9.48824E-4,1.1392318E-3,-8.1759086E-4,-5.7395874E-4,1.3833609E-3,-1.5069161E-3,4.164654E-3,9.107993E-3,4.577736E-3,6.5354076E-3,9.668972E-3,7.84898E-3,-9.639408E-3,-1.155638E-2],"split_indices":[5,1,9,4,8,0,1,2,8,0,0,1,6,2,0,7,0,0,0,4,3,2,0,7,0,3,0,8,0,3,0,6,8,8,0,1,0,4,0,0,0,0,0,0,0,0,0,0,0,0,0,0,0,0,0,0,0],"split_type":[0,0,0,0,0,0,0,0,0,0,0,0,0,0,0,0,0,0,0,0,0,0,0,0,0,0,0,0,0,0,0,0,0,0,0,0,0,0,0,0,0,0,0,0,0,0,0,0,0,0,0,0,0,0,0,0,0],"sum_hessian":[2.7722438E4,1.394496E4,1.3777478E4,1.2463776E4,1.4811841E3,1.3223963E4,5.535145E2,1.089832E4,1.5654552E3,1.0447466E3,4.3643756E2,1.255961E4,6.643521E2,4.835843E2,6.993024E1,9.465852E3,1.4324688E3,9.964116E2,5.690436E2,1.119923E4,1.3603801E3,6.3403253E2,3.0319567E1,4.3528107E2,4.8303246E1,8.0792305E3,1.3866213E3,1.4024203E3,3.0048384E1,9.4623016E2,5.0181488E1,9.912287E3,1.2869434E3,5.0996173E2,8.5041846E2,5.4999725E2,8.40353E1,3.968399E2,3.8441166E1,2.885886E3,5.1933447E3,1.344371E3,4.2250374E1,9.6668604E2,4.3573428E2,1.254826E2,8.2074756E2,9.092048E3,8.202391E2,1.1109459E3,1.7599742E2,3.75071E2,1.3489072E2,4.784939E2,7.150333E1,3.5744574E2,3.939415E1],"tree_param":{"num_deleted":"0","num_feature":"10","num_nodes":"57","size_leaf_vector":"0"}},{"base_weights":[4.679915E-5,-1.9349512E-1,1.9594105E-1,-2.585503E-1,3.5371277E-1,2.4054043E-1,-8.690874E-1,-3.2303423E-1,1.9027393E-1,3.9621973E-1,2.5129893E-1,2.0311785E-1,9.474728E-1,-9.7495615E-1,-1.3444783E-1,-3.9044523E-1,1.2229918E-1,-2.5410406E-2,5.674768E-1,1.5544109E-1,5.9537613E-1,9.969566E-1,-8.47776E-2,-1.0022243E0,-7.140326E-1,-4.491373E-1,-4.8480455E-2,9.986938E-2,1.133849E0,-6.01042E-2,6.1749226E-1,1.1326498E-1,4.800533E-1,5.0582695E-1,6.48429E-1,9.363826E-1,1.3782037E0,-9.77259E-1,-1.228756E0,-2.9968983E-1,-5.321242E-1,-7.243629E-2,6.98294E-1,9.393569E-2,1.1278824E-1,-8.09488E-2,-5.682269E-2,1.3695614E-1,-1.4919104E-1,4.1239932E-1,9.027195E-1,4.533337E-1,6.47416E-1,9.584196E-1,7.777787E-1,-9.55488E-1,-1.146306E0],"categories":[],"categories_nodes":[],"categories_segments":[],"categories_sizes":[],"default_left":[1,1,1,1,1,1,1,1,1,0,0,1,1,1,0,1,1,1,0,1,1,1,0,1,0,1,1,1,0,1,0,1,1,1,0,1,0,1,0,0,0,0,0,0,0,0,0,0,0,0,0,0,0,0,0,0,0],"id":24,"left_children":[1,3,5,7,9,11,13,15,17,-1,-1,19,21,23,-1,25,27,29,-1,31,33,35,-1,37,-1,39,41,43,-1,45,-1,47,49,51,-1,53,-1,55,-1,-1,-1,-1,-1,-1,-1,-1,-1,-1,-1,-1,-1,-1,-1,-1,-1,-1,-1],"loss_changes":[1.0509216E3,4.964472E2,6.545474E2,3.6074084E2,6.3516846E0,3.496186E2,4.2949005E1,3.271792E2,1.27433655E2,0E0,0E0,2.3478564E2,3.402716E1,2.7278442E0,0E0,1.8993848E2,3.2408943E1,2.2283436E1,0E0,1.5327701E2,6.136566E0,1.3355103E1,0E0,1.2632751E0,0E0,1.0002527E2,2.4873924E1,9.698677E-2,0E0,6.019211E-2,0E0,6.1658554E1,3.6443787E1,3.5028687E0,0E0,1.1781311E0,0E0,3.670349E-1,0E0,0E0,0E0,0E0,0E0,0E0,0E0,0E0,0E0,0E0,0E0,0E0,0E0,0E0,0E0,0E0,0E0,0E0,0E0],"parents":[2147483647,0,0,1,1,2,2,3,3,4,4,5,5,6,6,7,7,8,8,11,11,12,12,13,13,15,15,16,16,17,17,19,19,20,20,21,21,23,23,25,25,26,26,27,27,29,29,31,31,32,32,33,33,35,35,37,37],"right_children":[2,4,6,8,10,12,14,16,18,-1,-1,20,22,24,-1,26,28,30,-1,32,34,36,-1,38,-1,40,42,44,-1,46,-1,48,50,52,-1,54,-1,56,-1,-1,-1,-1,-1,-1,-1,-1,-1,-1,-1,-1,-1,-1,-1,-1,-1,-1,-1],"split_conditions":[5E-1,5E-1,5E-1,5E-1,5E-1,5E-1,5E-1,5E-1,5E-1,3.9621973E-3,2.5129893E-3,5E-1,5E-1,5E-1,-1.3444782E-3,5E-1,5E-1,5E-1,5.674768E-3,5E-1,5E-1,5E-1,-8.47776E-4,5E-1,-7.140326E-3,5E-1,5E-1,5E-1,1.133849E-2,5E-1,6.1749225E-3,5E-1,5E-1,5E-1,6.4842897E-3,5E-1,1.3782037E-2,5E-1,-1.2287559E-2,-2.9968983E-3,-5.321242E-3,-7.2436285E-4,6.98294E-3,9.3935686E-4,1.1278824E-3,-8.09488E-4,-5.682269E-4,1.3695614E-3,-1.4919103E-3,4.123993E-3,9.027195E-3,4.533337E-3,6.4741597E-3,9.584196E-3,7.777787E-3,-9.55488E-3,-1.146306E-2],"split_indices":[5,1,9,4,8,0,1,2,8,0,0,1,6,2,0,7,0,0,0,4,3,2,0,7,0,3,0,8,0,3,0,6,8,8,0,1,0,4,0,0,0,0,0,0,0,0,0,0,0,0,0,0,0,0,0,0,0],"split_type":[0,0,0,0,0,0,0,0,0,0,0,0,0,0,0,0,0,0,0,0,0,0,0,0,0,0,0,0,0,0,0,0,0,0,0,0,0,0,0,0,0,0,0,0,0,0,0,0,0,0,0,0,0,0,0,0,0],"sum_hessian":[2.7716748E4,1.3942089E4,1.3774658E4,1.2461163E4,1.4809258E3,1.3221755E4,5.5290326E2,1.0895984E4,1.5651788E3,1.0445255E3,4.364003E2,1.2558252E4,6.6350354E2,4.829747E2,6.9928535E1,9.463586E3,1.432399E3,9.9638135E2,5.687975E2,1.119853E4,1.3597214E3,6.3318427E2,3.0319271E1,4.347043E2,4.8270386E1,8.077001E3,1.3865845E3,1.4024014E3,2.9997688E1,9.4622546E2,5.0155888E1,9.912032E3,1.2864982E3,5.0978226E2,8.499392E2,5.493565E2,8.382778E1,3.9633905E2,3.8365265E1,2.8854087E3,5.1915923E3,1.3443617E3,4.222288E1,9.666745E2,4.357268E2,1.2548148E2,8.2074396E2,9.091817E3,8.2021436E2,1.1106913E3,1.7580687E2,3.7496725E2,1.34815E2,4.7791083E2,7.144567E1,3.5701285E2,3.9326202E1],"tree_param":{"num_deleted":"0","num_feature":"10","num_nodes":"57","size_leaf_vector":"0"}},{"base_weights":[4.8093454E-5,-1.9159909E-1,1.9402425E-1,-2.560187E-1,3.50243E-1,2.3818117E-1,-8.6145425E-1,-3.1987396E-1,1.8841255E-1,3.9234695E-1,2.488135E-1,2.0111184E-1,9.3928254E-1,-9.665473E-1,-1.3312541E-1,-3.8663697E-1,1.210919E-1,-2.5152285E-2,5.6206274E-1,1.5389797E-1,5.8972996E-1,9.8840135E-1,-8.395778E-2,-9.936366E-1,-7.075243E-1,-4.4477412E-1,-4.7992382E-2,9.887364E-2,1.124776E0,-5.9505023E-2,6.117543E-1,1.1213542E-1,4.754329E-1,5.0097215E-1,6.423256E-1,9.2816585E-1,1.3680396E0,-9.688001E-1,-1.219208E0,-4.6066517E-1,3.30443E-1,-7.1712986E-2,6.919272E-1,9.299851E-2,1.1166508E-1,-8.0146514E-2,-5.6255516E-2,1.355904E-1,-1.4770533E-1,4.0837553E-1,8.9473903E-1,4.489405E-1,6.413588E-1,9.5004946E-1,7.707417E-1,-9.4714224E-1,-1.1371057E0],"categories":[],"categories_nodes":[],"categories_segments":[],"categories_sizes":[],"default_left":[1,1,1,1,1,1,1,1,1,0,0,1,1,1,0,1,1,1,0,1,1,1,0,1,0,1,1,1,0,1,0,1,1,1,0,1,0,1,0,0,0,0,0,0,0,0,0,0,0,0,0,0,0,0,0,0,0],"id":25,"left_children":[1,3,5,7,9,11,13,15,17,-1,-1,19,21,23,-1,25,27,29,-1,31,33,35,-1,37,-1,39,41,43,-1,45,-1,47,49,51,-1,53,-1,55,-1,-1,-1,-1,-1,-1,-1,-1,-1,-1,-1,-1,-1,-1,-1,-1,-1,-1,-1],"loss_changes":[1.0302264E3,4.866737E2,6.4210803E2,3.5365112E2,6.2299194E0,3.4340314E2,4.2220276E1,3.2078552E2,1.24970276E2,0E0,0E0,2.3032288E2,3.3437317E1,2.6884766E0,0E0,1.8627002E2,3.185215E1,2.185791E1,0E0,1.5032568E2,6.027252E0,1.3212585E1,0E0,1.2565308E0,0E0,9.963684E1,2.4402924E1,9.508133E-2,0E0,5.9025764E-2,0E0,6.0434E1,3.582303E1,3.4417572E0,0E0,1.161499E0,0E0,3.6947632E-1,0E0,0E0,0E0,0E0,0E0,0E0,0E0,0E0,0E0,0E0,0E0,0E0,0E0,0E0,0E0,0E0,0E0,0E0,0E0],"parents":[2147483647,0,0,1,1,2,2,3,3,4,4,5,5,6,6,7,7,8,8,11,11,12,12,13,13,15,15,16,16,17,17,19,19,20,20,21,21,23,23,25,25,26,26,27,27,29,29,31,31,32,32,33,33,35,35,37,37],"right_children":[2,4,6,8,10,12,14,16,18,-1,-1,20,22,24,-1,26,28,30,-1,32,34,36,-1,38,-1,40,42,44,-1,46,-1,48,50,52,-1,54,-1,56,-1,-1,-1,-1,-1,-1,-1,-1,-1,-1,-1,-1,-1,-1,-1,-1,-1,-1,-1],"split_conditions":[5E-1,5E-1,5E-1,5E-1,5E-1,5E-1,5E-1,5E-1,5E-1,3.923469E-3,2.488135E-3,5E-1,5E-1,5E-1,-1.331254E-3,5E-1,5E-1,5E-1,5.620627E-3,5E-1,5E-1,5E-1,-8.3957775E-4,5E-1,-7.0752427E-3,5E-1,5E-1,5E-1,1.124776E-2,5E-1,6.1175427E-3,5E-1,5E-1,5E-1,6.4232554E-3,5E-1,1.3680396E-2,5E-1,-1.219208E-2,-4.6066516E-3,3.3044298E-3,-7.1712985E-4,6.919272E-3,9.299851E-4,1.1166508E-3,-8.014651E-4,-5.6255516E-4,1.355904E-3,-1.4770533E-3,4.0837554E-3,8.94739E-3,4.4894046E-3,6.413588E-3,9.500494E-3,7.707417E-3,-9.471422E-3,-1.1371057E-2],"split_indices":[5,1,9,4,8,0,1,2,8,0,0,1,6,2,0,7,0,0,0,4,3,2,0,7,0,0,0,8,0,3,0,6,8,8,0,1,0,4,0,0,0,0,0,0,0,0,0,0,0,0,0,0,0,0,0,0,0],"split_type":[0,0,0,0,0,0,0,0,0,0,0,0,0,0,0,0,0,0,0,0,0,0,0,0,0,0,0,0,0,0,0,0,0,0,0,0,0,0,0,0,0,0,0,0,0,0,0,0,0,0,0,0,0,0,0,0,0],"sum_hessian":[2.77109E4,1.3939137E4,1.3771764E4,1.2458476E4,1.4806605E3,1.3219488E4,5.522752E2,1.0893581E4,1.5648949E3,1.0442985E3,4.363621E2,1.2556856E4,6.626319E2,4.8234842E2,6.992679E1,9.461254E3,1.4323273E3,9.963501E2,5.6854474E2,1.1197812E4,1.359045E3,6.323129E2,3.031897E1,4.3411182E2,4.8236626E1,8.074707E3,1.3865465E3,1.4023817E3,2.99456E1,9.462205E2,5.0129585E1,9.9117705E3,1.2860409E3,5.0959796E2,8.49447E2,5.4869836E2,8.361461E1,3.9582452E2,3.828728E1,7.9129077E3,1.617996E2,1.3443519E3,4.2194633E1,9.666626E2,4.3571912E2,1.2548035E2,8.207402E2,9.091581E3,8.2018915E2,1.1104298E3,1.7561111E2,3.7486072E2,1.3473724E2,4.773119E2,7.1386444E1,3.5656815E2,3.925638E1],"tree_param":{"num_deleted":"0","num_feature":"10","num_nodes":"57","size_leaf_vector":"0"}},{"base_weights":[4.9637256E-5,-1.8972309E-1,1.9212712E-1,-2.535142E-1,3.468091E-1,2.3584598E-1,-8.539144E-1,-3.1674796E-1,1.8657017E-1,3.885144E-1,2.4635331E-1,1.9912606E-1,9.3119615E-1,-9.582447E-1,-1.3181621E-1,-3.828706E-1,1.1989661E-1,-2.4896732E-2,5.567064E-1,1.5237026E-1,5.8414495E-1,9.799559E-1,-8.314585E-2,-9.851589E-1,-7.0108855E-1,-4.4045985E-1,-4.750917E-2,9.788776E-2,1.1158282E0,-5.8911726E-2,6.0607755E-1,1.1101702E-1,4.7086132E-1,4.9616835E-1,6.362896E-1,9.2005074E-1,1.3580472E0,-9.604482E-1,-1.2098017E0,-2.9266563E-1,-5.225468E-1,-7.0996836E-2,6.856302E-1,9.207063E-2,1.10553026E-1,-7.935223E-2,-5.569389E-2,1.3423817E-1,-1.4623474E-1,4.0439343E-1,8.8685554E-1,4.445928E-1,6.353675E-1,9.417841E-1,7.6378495E-1,-9.3890077E-1,-1.1280339E0],"categories":[],"categories_nodes":[],"categories_segments":[],"categories_sizes":[],"default_left":[1,1,1,1,1,1,1,1,1,0,0,1,1,1,0,1,1,1,0,1,1,1,0,1,0,1,1,1,0,1,0,1,1,1,0,1,0,1,0,0,0,0,0,0,0,0,0,0,0,0,0,0,0,0,0,0,0],"id":26,"left_children":[1,3,5,7,9,11,13,15,17,-1,-1,19,21,23,-1,25,27,29,-1,31,33,35,-1,37,-1,39,41,43,-1,45,-1,47,49,51,-1,53,-1,55,-1,-1,-1,-1,-1,-1,-1,-1,-1,-1,-1,-1,-1,-1,-1,-1,-1,-1,-1],"loss_changes":[1.0099432E3,4.7709644E2,6.299181E2,3.4670483E2,6.110626E0,3.3731647E2,4.150711E1,3.1452173E2,1.2255613E2,0E0,0E0,2.259502E2,3.2859924E1,2.650238E0,0E0,1.8267761E2,3.1306704E1,2.1440735E1,0E0,1.4743347E2,5.9202576E0,1.3074585E1,0E0,1.25E0,0E0,9.7792114E1,2.3941183E1,9.321594E-2,0E0,5.7882786E-2,0E0,5.9233788E1,3.5215393E1,3.3818893E0,0E0,1.1452637E0,0E0,3.7191772E-1,0E0,0E0,0E0,0E0,0E0,0E0,0E0,0E0,0E0,0E0,0E0,0E0,0E0,0E0,0E0,0E0,0E0,0E0,0E0],"parents":[2147483647,0,0,1,1,2,2,3,3,4,4,5,5,6,6,7,7,8,8,11,11,12,12,13,13,15,15,16,16,17,17,19,19,20,20,21,21,23,23,25,25,26,26,27,27,29,29,31,31,32,32,33,33,35,35,37,37],"right_children":[2,4,6,8,10,12,14,16,18,-1,-1,20,22,24,-1,26,28,30,-1,32,34,36,-1,38,-1,40,42,44,-1,46,-1,48,50,52,-1,54,-1,56,-1,-1,-1,-1,-1,-1,-1,-1,-1,-1,-1,-1,-1,-1,-1,-1,-1,-1,-1],"split_conditions":[5E-1,5E-1,5E-1,5E-1,5E-1,5E-1,5E-1,5E-1,5E-1,3.885144E-3,2.463533E-3,5E-1,5E-1,5E-1,-1.3181621E-3,5E-1,5E-1,5E-1,5.567064E-3,5E-1,5E-1,5E-1,-8.314585E-4,5E-1,-7.0108855E-3,5E-1,5E-1,5E-1,1.1158281E-2,5E-1,6.0607754E-3,5E-1,5E-1,5E-1,6.362896E-3,5E-1,1.3580472E-2,5E-1,-1.2098016E-2,-2.9266563E-3,-5.225468E-3,-7.099683E-4,6.856302E-3,9.207063E-4,1.1055302E-3,-7.935223E-4,-5.569389E-4,1.3423817E-3,-1.4623473E-3,4.0439344E-3,8.868556E-3,4.445928E-3,6.353675E-3,9.41784E-3,7.637849E-3,-9.389007E-3,-1.1280338E-2],"split_indices":[5,1,9,4,8,0,1,2,8,0,0,1,6,2,0,7,0,0,0,4,3,2,0,7,0,3,0,8,0,3,0,6,8,8,0,1,0,4,0,0,0,0,0,0,0,0,0,0,0,0,0,0,0,0,0,0,0],"split_type":[0,0,0,0,0,0,0,0,0,0,0,0,0,0,0,0,0,0,0,0,0,0,0,0,0,0,0,0,0,0,0,0,0,0,0,0,0,0,0,0,0,0,0,0,0,0,0,0,0,0,0,0,0,0,0,0,0],"sum_hessian":[2.770482E4,1.3936027E4,1.3768794E4,1.2455639E4,1.4803885E3,1.3217163E4,5.5163116E2,1.0891034E4,1.5646039E3,1.0440657E3,4.363229E2,1.2555425E4,6.617381E2,4.8170618E2,6.992499E1,9.45878E3,1.4322539E3,9.963183E2,5.682856E2,1.1197073E4,1.3583511E3,6.3141943E2,3.031866E1,4.3350418E2,4.8201992E1,8.0722734E3,1.3865074E3,1.4023617E3,2.9892162E1,9.462157E2,5.0102604E1,9.911501E3,1.2855721E3,5.0940887E2,8.4894226E2,5.4802344E2,8.339599E1,3.952969E2,3.820729E1,2.8841133E3,5.1881597E3,1.3443417E3,4.216566E1,9.6665045E2,4.357112E2,1.2547918E2,8.207365E2,9.091338E3,8.20163E2,1.1101619E3,1.7541035E2,3.747514E2,1.3465747E2,4.7669775E2,7.132569E1,3.5611212E2,3.918477E1],"tree_param":{"num_deleted":"0","num_feature":"10","num_nodes":"57","size_leaf_vector":"0"}},{"base_weights":[5.087354E-5,-1.8786597E-1,1.9024959E-1,-2.5103462E-1,3.4341025E-1,2.3353475E-1,-8.4646547E-1,-3.1365272E-1,1.8474683E-1,3.847212E-1,2.4391803E-1,1.9716048E-1,9.232114E-1,-9.500456E-1,-1.3051996E-1,-3.79141E-1,1.1871326E-1,-2.4643695E-2,5.514077E-1,1.5085801E-1,5.7862E-1,9.7161806E-1,-8.234174E-2,-9.7678846E-1,-6.9472355E-1,-4.3618724E-1,-4.7031153E-2,9.691171E-2,1.1070024E0,-5.8324277E-2,6.0046184E-1,1.09909885E-1,4.663379E-1,4.9141505E-1,6.303193E-1,9.120353E-1,1.3482218E0,-9.522004E-1,-1.2005332E0,-4.519045E-1,3.3007145E-1,-7.028817E-2,6.7940223E-1,9.115204E-2,1.09451964E-1,-7.856565E-2,-5.5137824E-2,1.3289958E-1,-1.4477901E-1,4.004526E-1,8.790666E-1,4.402903E-1,6.294416E-1,9.336214E-1,7.5690705E-1,-9.3076104E-1,-1.1190871E0],"categories":[],"categories_nodes":[],"categories_segments":[],"categories_sizes":[],"default_left":[1,1,1,1,1,1,1,1,1,0,0,1,1,1,0,1,1,1,0,1,1,1,0,1,0,1,1,1,0,1,0,1,1,1,0,1,0,1,0,0,0,0,0,0,0,0,0,0,0,0,0,0,0,0,0,0,0],"id":27,"left_children":[1,3,5,7,9,11,13,15,17,-1,-1,19,21,23,-1,25,27,29,-1,31,33,35,-1,37,-1,39,41,43,-1,45,-1,47,49,51,-1,53,-1,55,-1,-1,-1,-1,-1,-1,-1,-1,-1,-1,-1,-1,-1,-1,-1,-1,-1,-1,-1],"loss_changes":[9.9006494E2,4.677088E2,6.1797205E2,3.3989514E2,5.9937134E0,3.313553E2,4.080899E1,3.0838013E2,1.2019042E2,0E0,0E0,2.2166495E2,3.2294617E1,2.6128845E0,0E0,1.7915454E2,3.0772318E1,2.1031792E1,0E0,1.4459917E2,5.8155823E0,1.2940735E1,0E0,1.2438049E0,0E0,9.7350464E1,2.3488554E1,9.138298E-2,0E0,5.6761503E-2,0E0,5.8057518E1,3.462036E1,3.3232422E0,0E0,1.1294861E0,0E0,3.7438965E-1,0E0,0E0,0E0,0E0,0E0,0E0,0E0,0E0,0E0,0E0,0E0,0E0,0E0,0E0,0E0,0E0,0E0,0E0,0E0],"parents":[2147483647,0,0,1,1,2,2,3,3,4,4,5,5,6,6,7,7,8,8,11,11,12,12,13,13,15,15,16,16,17,17,19,19,20,20,21,21,23,23,25,25,26,26,27,27,29,29,31,31,32,32,33,33,35,35,37,37],"right_children":[2,4,6,8,10,12,14,16,18,-1,-1,20,22,24,-1,26,28,30,-1,32,34,36,-1,38,-1,40,42,44,-1,46,-1,48,50,52,-1,54,-1,56,-1,-1,-1,-1,-1,-1,-1,-1,-1,-1,-1,-1,-1,-1,-1,-1,-1,-1,-1],"split_conditions":[5E-1,5E-1,5E-1,5E-1,5E-1,5E-1,5E-1,5E-1,5E-1,3.8472118E-3,2.4391802E-3,5E-1,5E-1,5E-1,-1.3051996E-3,5E-1,5E-1,5E-1,5.514077E-3,5E-1,5E-1,5E-1,-8.234174E-4,5E-1,-6.947235E-3,5E-1,5E-1,5E-1,1.1070023E-2,5E-1,6.0046185E-3,5E-1,5E-1,5E-1,6.303193E-3,5E-1,1.3482218E-2,5E-1,-1.2005331E-2,-4.519045E-3,3.3007143E-3,-7.0288166E-4,6.7940224E-3,9.115204E-4,1.0945196E-3,-7.856565E-4,-5.5137824E-4,1.3289958E-3,-1.4477901E-3,4.004526E-3,8.790665E-3,4.402903E-3,6.2944163E-3,9.336214E-3,7.5690704E-3,-9.30761E-3,